tree
version=v2
num_class=1
num_tree_per_iteration=1
label_index=0
max_feature_idx=299
objective=regression
feature_names=Column_0 Column_1 Column_2 Column_3 Column_4 Column_5 Column_6 Column_7 Column_8 Column_9 Column_10 Column_11 Column_12 Column_13 Column_14 Column_15 Column_16 Column_17 Column_18 Column_19 Column_20 Column_21 Column_22 Column_23 Column_24 Column_25 Column_26 Column_27 Column_28 Column_29 Column_30 Column_31 Column_32 Column_33 Column_34 Column_35 Column_36 Column_37 Column_38 Column_39 Column_40 Column_41 Column_42 Column_43 Column_44 Column_45 Column_46 Column_47 Column_48 Column_49 Column_50 Column_51 Column_52 Column_53 Column_54 Column_55 Column_56 Column_57 Column_58 Column_59 Column_60 Column_61 Column_62 Column_63 Column_64 Column_65 Column_66 Column_67 Column_68 Column_69 Column_70 Column_71 Column_72 Column_73 Column_74 Column_75 Column_76 Column_77 Column_78 Column_79 Column_80 Column_81 Column_82 Column_83 Column_84 Column_85 Column_86 Column_87 Column_88 Column_89 Column_90 Column_91 Column_92 Column_93 Column_94 Column_95 Column_96 Column_97 Column_98 Column_99 Column_100 Column_101 Column_102 Column_103 Column_104 Column_105 Column_106 Column_107 Column_108 Column_109 Column_110 Column_111 Column_112 Column_113 Column_114 Column_115 Column_116 Column_117 Column_118 Column_119 Column_120 Column_121 Column_122 Column_123 Column_124 Column_125 Column_126 Column_127 Column_128 Column_129 Column_130 Column_131 Column_132 Column_133 Column_134 Column_135 Column_136 Column_137 Column_138 Column_139 Column_140 Column_141 Column_142 Column_143 Column_144 Column_145 Column_146 Column_147 Column_148 Column_149 Column_150 Column_151 Column_152 Column_153 Column_154 Column_155 Column_156 Column_157 Column_158 Column_159 Column_160 Column_161 Column_162 Column_163 Column_164 Column_165 Column_166 Column_167 Column_168 Column_169 Column_170 Column_171 Column_172 Column_173 Column_174 Column_175 Column_176 Column_177 Column_178 Column_179 Column_180 Column_181 Column_182 Column_183 Column_184 Column_185 Column_186 Column_187 Column_188 Column_189 Column_190 Column_191 Column_192 Column_193 Column_194 Column_195 Column_196 Column_197 Column_198 Column_199 Column_200 Column_201 Column_202 Column_203 Column_204 Column_205 Column_206 Column_207 Column_208 Column_209 Column_210 Column_211 Column_212 Column_213 Column_214 Column_215 Column_216 Column_217 Column_218 Column_219 Column_220 Column_221 Column_222 Column_223 Column_224 Column_225 Column_226 Column_227 Column_228 Column_229 Column_230 Column_231 Column_232 Column_233 Column_234 Column_235 Column_236 Column_237 Column_238 Column_239 Column_240 Column_241 Column_242 Column_243 Column_244 Column_245 Column_246 Column_247 Column_248 Column_249 Column_250 Column_251 Column_252 Column_253 Column_254 Column_255 Column_256 Column_257 Column_258 Column_259 Column_260 Column_261 Column_262 Column_263 Column_264 Column_265 Column_266 Column_267 Column_268 Column_269 Column_270 Column_271 Column_272 Column_273 Column_274 Column_275 Column_276 Column_277 Column_278 Column_279 Column_280 Column_281 Column_282 Column_283 Column_284 Column_285 Column_286 Column_287 Column_288 Column_289 Column_290 Column_291 Column_292 Column_293 Column_294 Column_295 Column_296 Column_297 Column_298 Column_299
feature_infos=[0:0.73999999999999999] none none none none [0:1] [0:0.81000000000000005] [0:1] [0:0.80000000000000004] [0:1] [0:0.93000000000000005] [0:1] none none none none [0:1] [0:1] none [0:0.98999999999999999] [0:0.78000000000000003] [0:0.93000000000000005] [0:1] none [0:0.88] [0:1] [0:1] [0:1] [0:0.98999999999999999] [0:0.94999999999999996] [0:1] [0:0.80000000000000004] [0:0.96999999999999997] [0:1] none [0:1] [0:1] none [0:0.98999999999999999] none [0:1] none [0:0.97999999999999998] [0:0.93000000000000005] [0:1] [0:1] [0:0.93000000000000005] [0:1] none none none none none none [0:1] [0:1] none [0:1] none [0:1] none [0:1] none [0:1] none [0:1] none none [0:1] [0:1] [0:1] none none [0:1] [0:0.98999999999999999] [0:1] [0:1] [0:1] [0:1] [0:1] [0:1] [0:0.98999999999999999] [0:0.91000000000000003] none [0:1] [0:1] [0:0.97999999999999998] [0:0.98999999999999999] [0:1] none [0:1] none none none none [0:1] [0:1] [0:1] [0:1] [0:1] [0:1] [0:0.97999999999999998] none [0:1] none [0:0.81000000000000005] [0:1] [0:1] none [0:1] [0:1] none none [0:0.97999999999999998] none none [0:0.85999999999999999] none none [0:1] [0:1] [0:0.98999999999999999] [0:1] [0:1] [0:1] [0:0.54000000000000004] [0:1] [0:1] [0:1] none [0:1] [0:0.96999999999999997] [0:1] none [0:1] none [0:1] [0:1] [0:1] [0:1] [0:1] none [0:1] [0:0.92000000000000004] [0:1] [0:1] [0:1] none [0:1] [0:1] [0:1] [0:1] [0:1] [0:0.97999999999999998] [0:0.67000000000000004] none [0:1] [0:0.92000000000000004] [0:1] [0:1] [0:0.98999999999999999] [0:0.85999999999999999] [0:1] [0:1] [0:1] [0:1] [0:1] [0:1] [0:1] [0:0.98999999999999999] none [0:1] [0:1] [0:1] [0:1] [0:0.72999999999999998] [0:1] [0:0.55000000000000004] [0:1] none [0:0.97999999999999998] [0:1] none none none [0:1] [0:1] none [0:1] [0:1] [0:1] [0:1] [0:1] none [0:1] [0:1] [0:1] none [0:1] none [0:0.93000000000000005] [0:1] none [0:0.89000000000000001] [0:1] [0:0.81000000000000005] none [0:0.64000000000000001] none none none [0:0.94999999999999996] none none [0:0.95999999999999996] [0:1] none none [0:0.94999999999999996] [0:1] none [0:0.98999999999999999] [0:1] [0:1] [0:1] [0:0.97999999999999998] [0:1] [0:0.98999999999999999] [0:1] [0:0.87] [0:1] [0:1] [0:0.76000000000000001] [0:1] [0:1] [0:0.96999999999999997] none [0:1] [0:1] [0:1] [0:1] [0:0.81999999999999995] [0:1] [0:1] [0:1] [0:1] [0:1] [0:1] none none none none [0:1] [0:1] [0:1] [0:1] [0:1] none [0:0.20999999999999999] [0:1] [0:1] [0:0.93000000000000005] none [0:0.97999999999999998] [0:1] [0:1] [0:1] [0:1] none none [0:0.96999999999999997] none none [0:1] [0:1] [0:1] [0:1] none [0:0.85999999999999999] none [0:0.91000000000000003] [0:0.88] [0:0.81999999999999995] [0:1] [0:0.62] [0:0.98999999999999999] [0:1] none [0:0.98999999999999999] [0:0.97999999999999998] [0:0.96999999999999997] [0:0.94999999999999996] none [0:1] [0:0.98999999999999999] none [0:1] [0:0.98999999999999999] [0:1] [0:1]
tree_sizes=2457 2521 2521 2536 2528 2527 2538 2543 2538 2526 2535 2546 2553 2540 2544 2553 2551 2550 2552 2556 2543 2547 2551 2543 2560 2557 2545 2552 2553 2550 2559 2549 2568 2563 2590 2556 2568 2561 2561 2559 2573 2566 2550 2567 2572 2564 2553 2574 2567 2564 2540 2550 2567 2558 2550 2567 2568 2552 2562 2547 2560 2565 2582 2577 2573 2566 2559 2574 2570 2567 2566 2564 2593 2573 2580 2583 2571 2583 2583 2584 2585 2602 2581 2590 2595 2587 2585 2575 2567 2593 2615 2576 2595 2610 2583 2583 2573 2590 2584 2591

Tree=0
num_leaves=31
num_cat=0
split_feature=5 149 99 191 243 150 36 152 5 31 36 149 99 259 29 180 26 173 149 207 68 27 171 35 35 243 267 68 207 134
split_gain=487.568 181.202 110.86 65.1952 39.9704 34.3086 33.3341 25.674 23.7422 21.6635 18.6482 17.2178 16.2695 14.5866 14.4917 13.3003 13.1568 13.0908 12.6877 10.0717 9.77236 9.35566 9.09395 9.04206 8.83133 9.83156 8.32057 8.24228 8.22259 7.97045
threshold=0.81500000000000006 0.55500000000000016 0.9850000000000001 0.56500000000000006 1.0000000180025095e-35 0.97500000000000009 0.72500000000000009 0.81500000000000006 0.96500000000000008 0.65500000000000014 0.81500000000000006 0.91500000000000015 0.89500000000000013 0.84500000000000008 0.37500000000000006 0.54500000000000015 0.50500000000000012 0.89500000000000013 0.74500000000000011 0.48500000000000004 0.24000000000000002 0.74500000000000011 0.70500000000000007 0.37500000000000006 0.20500000000000004 1.0000000180025095e-35 0.94500000000000006 0.24000000000000002 0.62500000000000011 0.23500000000000001
decision_type=2 2 2 2 2 2 2 2 2 2 2 2 2 2 2 2 2 2 2 2 2 2 2 2 2 2 2 2 2 2
left_child=1 3 5 4 13 12 11 22 -4 19 20 24 14 17 18 -7 28 23 -2 27 -8 -9 -5 -1 -3 -26 -10 -6 -12 -14
right_child=2 6 8 7 9 15 10 21 26 -11 16 -13 29 -15 -16 -17 -18 -19 -20 -21 -22 -23 -24 -25 25 -27 -28 -29 -30 -31
leaf_value=1.2233401486901112 1.2712687187918987 1.2522872379400791 1.3805078466469547 1.2498977516573713 1.2309909424440304 1.3301972896399055 1.3907687185263873 1.3074173674698373 1.454420890254791 1.269295035009157 1.2637687190628291 1.3240318758595855 1.2962687186902999 1.3337687186157943 1.3365464958321445 1.4210875593401968 1.3617990198353804 1.2940628361839646 1.3328427925850082 1.2248293261349079 1.3313493626378667 1.3856917946104141 1.2943851564800162 1.2540517381135037 1.2910720891126592 1.2503180150893276 1.5322981239905316 1.1886047867276477 1.3134353848155578 1.3564786414188339
leaf_count=175 88 108 23 124 54 21 50 37 23 57 60 95 24 20 198 69 33 51 54 165 62 26 73 212 356 71 34 305 75 262
internal_value=0 -0.241799 0.671022 -0.481516 -0.593584 0.546278 0.100391 -0.0336746 1.78748 -0.767727 0.387479 -0.0272033 0.463278 -0.372674 0.31542 1.12359 0.176765 -0.410808 0.0716341 -0.831414 0.703551 0.522003 -0.211379 -0.473567 -0.0968666 -0.0322515 2.13353 -0.925404 0.0384051 0.639053
internal_count=3005 2209 796 1299 1039 716 910 260 80 581 280 630 626 458 340 90 168 438 142 524 112 63 197 387 535 427 57 359 135 286
shrinkage=1


Tree=1
num_leaves=31
num_cat=0
split_feature=188 149 99 191 174 252 36 152 180 152 166 36 144 5 139 35 153 80 16 178 260 160 241 188 70 166 153 68 11 85
split_gain=396.337 155.901 82.4526 57.1631 32.4491 28.6461 28.6373 24.752 23.1831 20.4487 16.4075 16.0188 14.278 12.163 12.1013 11.815 11.601 10.5588 10.4227 12.7757 10.3323 11.0497 12.0841 10.9275 9.37266 9.24291 11.8077 9.16401 8.55135 8.39336
threshold=0.83500000000000008 0.55500000000000016 0.9850000000000001 0.56500000000000006 1.0000000180025095e-35 0.93500000000000016 0.72500000000000009 0.81500000000000006 0.72500000000000009 0.97500000000000009 0.68500000000000016 0.83500000000000008 0.75000000000000011 0.96500000000000008 0.93500000000000016 0.36500000000000005 0.32500000000000007 0.38500000000000006 0.35000000000000003 0.57500000000000007 0.92500000000000016 0.68500000000000016 0.62500000000000011 0.97500000000000009 0.88500000000000012 0.77500000000000013 0.58500000000000008 0.16000000000000003 0.44000000000000006 0.8650000000000001
decision_type=2 2 2 2 2 2 2 2 2 2 2 2 2 2 2 2 2 2 2 2 2 2 2 2 2 2 2 2 2 2
left_child=1 3 5 4 15 14 12 29 -7 13 17 27 -3 -4 20 -1 -9 -6 -13 -20 21 -2 -23 -22 -14 26 -17 -8 -29 -5
right_child=2 6 9 7 10 8 11 16 -10 -11 -12 18 24 -15 -16 25 -18 -19 19 -21 23 22 -24 -25 -26 -27 -28 28 -30 -31
leaf_value=-0.058155437561659119 0.018208586596525633 -0.010094328009220492 0.061949215680360797 -0.030045929437951199 -0.096316804023771338 0.042871502254690441 0.097218106455273109 0.11258819018091476 0.12574053189333748 0.22791932122460726 -0.0065599752856152398 -0.01867991319445313 0.035944846708040976 0.16197438105460138 -0.0054667841415016018 -0.048754989210216482 0.022887251040209895 -0.049274587134520216 0.0062598372782979696 0.075514389747797062 0.054382739394903179 0.034793502457287843 0.093025288305112308 0.12233682880478521 -0.025246756692086498 0.02288765449976099 -0.014766174324211621 0.017840308996669035 0.078609466629150582 0.018089767910064537
leaf_count=269 156 498 20 158 233 56 45 21 85 29 28 61 130 31 49 261 46 60 70 43 100 98 56 31 31 29 168 57 39 47
internal_value=0 -0.202185 0.652337 -0.426119 -0.532136 0.531083 0.101299 -0.0176424 0.92828 1.60873 -0.796946 0.349312 -0.0172503 1.22749 0.416787 -0.415211 0.510025 -0.866836 0.146312 0.326133 0.469171 0.369668 0.559687 0.704635 0.241626 -0.317512 -0.354447 0.599821 0.425278 -0.190099
internal_count=3005 2294 711 1320 1048 631 974 272 141 80 321 315 659 51 490 727 67 293 174 113 441 310 154 131 161 458 429 141 96 205
shrinkage=0.1


Tree=2
num_leaves=31
num_cat=0
split_feature=188 149 99 254 153 36 150 27 152 149 31 166 173 270 180 252 7 188 180 260 10 16 143 160 42 154 215 264 107 178
split_gain=321.033 126.28 66.7866 47.6546 29.5786 24.4547 23.616 21.4771 16.5635 16.5624 14.3636 14.0233 14.1957 15.1 13.4693 13.758 10.2962 10.2765 10.1943 11.4452 9.79522 9.70982 8.20457 8.18272 8.13976 8.04834 8.00138 7.92152 7.79165 8.57561
threshold=0.83500000000000008 0.55500000000000016 0.9850000000000001 0.72500000000000009 0.19500000000000003 0.54500000000000015 0.95500000000000007 0.65000000000000013 0.97500000000000009 0.91500000000000015 0.63500000000000012 0.77500000000000013 0.90500000000000014 0.30000000000000004 0.59500000000000008 0.85500000000000009 0.95500000000000007 0.95500000000000007 0.90000000000000013 0.93500000000000016 0.52500000000000013 0.37000000000000005 1.0000000180025095e-35 0.52000000000000013 0.46500000000000002 0.66500000000000015 0.52500000000000013 0.37500000000000006 0.88500000000000012 0.85500000000000009
decision_type=2 2 2 2 2 2 2 2 2 2 2 2 2 2 2 2 2 2 2 2 2 2 2 2 2 2 2 2 2 2
left_child=1 3 6 4 10 9 17 21 16 -3 -1 12 13 20 -5 -16 -4 24 19 -8 -6 -7 -11 -9 -2 27 -27 -19 29 -25
right_child=2 5 8 14 11 7 18 23 -10 22 -12 -13 -14 -15 15 -17 -18 25 -20 -21 -22 -23 -24 28 -26 26 -28 -29 -30 -31
leaf_value=-0.079404366990694641 0.0086834201675194955 -0.015671545324270685 0.07438387707356485 -0.011574682864275846 -0.044622479348133015 -0.021187936773766642 0.038617676862499173 0.10059872961044312 0.20512738721124057 0.0084261406551707878 -0.0077410284790300557 0.022205410553858832 -0.0047833026757518066 -0.057576937334040026 0.0092805457966668274 0.10549634915331137 0.16641354382038118 0.046601476271947224 0.12648797122443595 0.11004054900762197 -0.006603072897996754 0.018636750018661791 0.076245978871981313 0.022097025942560789 0.040140016443495241 -0.015051938186992297 0.060030260831117635 0.109853094951673 0.083867465310236991 0.083379836932376591
leaf_count=286 130 391 31 143 144 92 57 25 29 44 31 39 103 381 42 23 20 36 41 37 128 183 30 148 224 22 40 44 34 27
internal_value=0 -0.181966 0.587103 -0.383507 -0.465683 0.0911691 0.477974 0.242619 1.44786 -0.0746117 -0.723963 -0.362696 -0.392861 -0.447284 0.0558182 0.433261 1.10474 0.377046 0.848794 0.667309 -0.26731 0.0531358 0.359207 0.465302 0.285882 0.604314 0.333882 0.813899 0.400627 0.315521
internal_count=3005 2294 711 1320 1112 974 631 509 80 465 317 795 756 653 208 65 51 496 135 94 272 275 74 234 354 142 62 80 209 175
shrinkage=0.1


Tree=3
num_leaves=31
num_cat=0
split_feature=5 149 99 119 153 150 36 82 282 36 149 38 246 26 180 99 20 215 29 42 146 73 207 28 33 35 160 29 180 267
split_gain=260.538 100.22 52.481 43.3623 26.8989 19.9398 18.7831 15.3862 13.7173 13.2989 12.5491 11.2351 11.7056 10.4939 10.306 10.1477 9.83331 9.20041 8.96013 8.28124 8.0501 8.16114 7.42352 7.11123 7.0523 7.0394 7.32401 6.84617 6.79977 7.39518
threshold=0.84500000000000008 0.55500000000000016 0.9850000000000001 0.63500000000000012 0.19500000000000003 0.96500000000000008 0.72500000000000009 0.77500000000000013 0.80000000000000016 0.80500000000000016 0.91500000000000015 0.62000000000000011 0.70500000000000018 0.50500000000000012 0.66500000000000015 0.89500000000000013 0.26000000000000006 0.35500000000000004 0.37500000000000006 0.27500000000000008 0.71500000000000008 0.6150000000000001 0.62500000000000011 0.88500000000000012 0.46000000000000002 0.20500000000000004 0.70000000000000007 0.43500000000000005 0.47500000000000003 0.68500000000000016
decision_type=2 2 2 2 2 2 2 2 2 2 2 2 2 2 2 2 2 2 2 2 2 2 2 2 2 2 2 2 2 2
left_child=1 3 5 4 -1 15 10 23 -4 -8 25 17 16 22 -7 18 -13 19 24 -6 21 -12 -11 28 -2 -3 -27 -14 -5 -30
right_child=2 6 8 7 11 14 9 -9 -10 13 20 12 27 -15 -16 -17 -18 -19 -20 -21 -22 -23 -24 -25 -26 26 -28 -29 29 -31
leaf_value=-0.070210011210628795 -0.027528941692138206 -0.029536518928679551 0.08335444999592645 -0.035779838755215503 -0.053063510616238298 0.033441690781286788 0.057312027204816589 0.047743187790567229 0.16682606342766021 -0.023871658539230175 0.017203110920058357 -0.012209554880857468 -0.050849495802161304 0.059477627965120176 0.10494060168663662 0.050764505289219046 -0.081199780707599742 -0.033267536700166613 0.038248882447646945 0.0095299679752999713 -0.017144738634427389 0.080601065787109183 0.020828814401346096 0.036359763198665213 0.023232380637238106 -0.010312406203103445 0.015960372304543852 -0.011285638792461224 -0.04609688729620897 0.015199805299441019
leaf_count=277 49 110 35 102 26 28 107 55 45 66 45 25 86 39 72 243 119 302 151 113 27 37 85 28 62 315 160 89 26 81
internal_value=0 -0.159998 0.541891 -0.339474 -0.435325 0.441239 0.0806926 0.000927065 1.30307 0.291143 -0.00937023 -0.338093 -0.48105 0.132345 0.849209 0.360452 -0.692223 -0.234684 0.223934 -0.0217816 0.302153 0.458095 0.0129086 -0.109654 0.00824229 -0.0674148 -0.0146263 -0.307284 -0.173056 0.00305282
internal_count=3005 2320 685 1329 1037 605 991 292 80 297 694 760 319 190 100 505 144 441 262 139 109 82 151 237 111 585 475 175 209 107
shrinkage=0.1


Tree=4
num_leaves=31
num_cat=0
split_feature=188 80 99 254 243 36 252 27 243 180 5 267 75 221 139 38 33 214 36 260 166 152 240 215 180 27 65 218 68 9
split_gain=212.225 84.3597 43.593 35.7876 24.0243 20.6944 16.2108 15.7895 15.4579 15.3868 12.6878 11.7052 11.4962 11.3106 9.31658 9.00956 8.84044 9.6152 7.31348 7.0132 8.58103 7.90932 6.95634 6.59363 6.55846 6.44368 6.41105 6.4679 6.26232 6.18645
threshold=0.83500000000000008 0.38500000000000006 0.9850000000000001 0.7350000000000001 1.0000000180025095e-35 0.54500000000000015 0.93500000000000016 0.65000000000000013 0.72000000000000008 0.72500000000000009 0.96500000000000008 0.85500000000000009 0.89500000000000013 0.54000000000000015 0.93500000000000016 0.62000000000000011 0.78500000000000014 0.69500000000000017 0.49500000000000005 0.92500000000000016 0.77500000000000013 0.96500000000000008 0.89500000000000013 0.94500000000000006 0.70500000000000007 0.8600000000000001 0.32500000000000007 0.89500000000000013 0.68500000000000016 0.91500000000000015
decision_type=2 2 2 2 2 2 2 2 2 2 2 2 2 2 2 2 2 2 2 2 2 2 2 2 2 2 2 2 2 2
left_child=1 3 6 8 5 12 14 26 15 -8 -4 13 18 -5 19 28 17 -7 -3 21 -21 22 -2 -19 -16 -9 -6 -28 -1 -17
right_child=2 4 10 11 7 16 9 25 -10 -11 -12 -13 -14 -15 24 29 -18 23 -20 20 -22 -23 -24 -25 -26 -27 27 -29 -30 -31
leaf_value=-0.013762479891205671 0.024445752860832608 -0.00091317753078507587 0.054583134988079901 -0.036677814868547147 -0.053313944004476067 0.016154639840167663 0.02809956286634718 0.047273005708688642 -0.06877568051767298 0.095611411543453442 0.14257383764835826 0.057620236525932948 0.048546313080522756 0.032728309470873615 0.021977907198446771 -0.064754822675845244 0.0046156850001878207 0.040736553343859588 -0.027047971744428984 0.03355143790758109 0.085862099952422666 -0.031073730642145331 0.067249059677124023 0.094973094375045211 -0.051575980809601879 -0.014319082375230462 -0.011432865833551248 -0.051153324415737937 -0.040445614071504682 -0.012621042642880371
leaf_count=157 243 305 23 59 90 179 56 41 231 85 57 36 36 39 27 145 180 132 165 79 52 22 45 27 22 29 161 55 200 27
internal_value=0 -0.14795 0.477352 -0.387925 0.0052914 0.0846703 0.389185 -0.210889 -0.471937 0.687982 1.17277 0.0885628 -0.0591654 -0.0905701 0.303205 -0.377695 0.225174 0.320508 -0.100882 0.349168 0.54316 0.26719 0.311338 0.499465 -0.110463 0.217563 -0.308901 -0.215469 -0.28711 -0.56571
internal_count=3005 2294 711 894 1400 1024 631 376 760 141 80 134 506 98 490 529 518 338 470 441 131 310 288 159 49 70 306 216 357 172
shrinkage=0.1


Tree=5
num_leaves=31
num_cat=0
split_feature=188 149 99 191 243 152 150 70 152 27 201 6 211 231 38 299 173 90 38 288 264 36 77 134 151 188 161 38 26 240
split_gain=171.903 69.4828 35.3103 34.0708 20.2914 15.4253 13.605 11.9066 11.6522 11.6418 11.283 9.79471 9.56141 8.88367 8.74399 8.69975 7.966 10.051 8.58157 7.74939 7.60982 7.55717 7.55649 7.31075 7.21024 7.69226 7.41732 6.55041 6.35148 6.25204
threshold=0.83500000000000008 0.59500000000000008 0.9850000000000001 0.56500000000000006 1.0000000180025095e-35 0.80500000000000016 0.97500000000000009 0.88500000000000012 0.9850000000000001 0.77000000000000013 1.0000000180025095e-35 0.69500000000000006 0.44500000000000001 0.77500000000000013 0.39500000000000007 0.29000000000000009 0.91500000000000015 0.55000000000000016 0.55500000000000016 0.92500000000000016 0.17500000000000002 0.88500000000000012 0.88500000000000012 0.33000000000000007 0.77500000000000013 0.92500000000000016 0.56500000000000006 0.87000000000000011 0.70500000000000007 0.54500000000000015
decision_type=2 2 2 2 2 2 2 2 2 2 2 2 2 2 2 2 2 2 2 2 2 2 2 2 2 2 2 2 2 2
left_child=1 3 6 4 16 12 24 10 21 -7 13 19 -5 -3 -14 -15 17 18 -1 -6 -12 -4 23 -22 -2 -26 -27 -28 -19 -25
right_child=2 7 8 5 11 9 -8 -9 -10 -11 20 -13 14 15 -16 -17 -18 28 -20 -21 22 -23 -24 29 25 26 27 -29 -30 -31
leaf_value=-0.021967921132306667 -0.0013050796354518218 -0.010682355064866889 0.049224455360319663 -0.035240864020541801 -0.053027179846988119 0.012827575625034802 0.071744231931094471 -0.024077494379053724 0.16054970346964326 0.092540845385304216 -0.015231074427449427 0.0018055602172879798 0.064599018260127025 0.083968706578016292 -0.0049084225513097894 0.010137091784537594 0.015324872925079294 0.019447100274002468 -0.05558097178498949 0.0062284433971280641 0.061070394095702057 0.1259623534533949 -0.01026034746752229 0.012466308659520642 0.021162182153487693 0.015650167881414809 0.049937967079527246 0.1107930099964142 -0.034213038146845065 0.044164219088510641
leaf_count=236 68 234 33 99 546 57 87 94 26 27 43 38 21 20 131 79 56 71 112 23 78 21 43 145 245 58 153 20 32 109
internal_value=0 -0.133155 0.429616 -0.266058 -0.350147 0.0135673 0.350267 0.094747 1.05549 0.384497 0.136743 -0.473492 -0.110569 -0.000584586 0.0469458 0.250526 -0.202473 -0.246642 -0.327859 -0.50632 0.246145 0.79067 0.291835 0.342922 0.291545 0.335059 0.465977 0.569732 0.0277599 0.26069
internal_count=3005 2294 711 1449 1114 335 631 845 80 84 751 607 251 333 152 99 507 451 348 569 418 54 375 332 544 476 231 173 103 254
shrinkage=0.1


Tree=6
num_leaves=31
num_cat=0
split_feature=5 80 99 103 42 119 95 100 270 38 36 252 27 36 160 90 153 174 151 29 19 19 90 38 122 11 214 282 293 246
split_gain=140.005 55.8082 27.6701 19.6586 20.8566 18.499 12.1805 12.0806 10.9762 9.97278 9.51874 8.90297 8.54235 10.7467 10.369 9.81828 11.6743 7.75912 7.59429 8.11246 7.52534 7.29236 8.61071 7.0523 6.12504 6.03604 6.54881 6.28531 5.91394 5.81242
threshold=0.84500000000000008 0.31500000000000006 0.9850000000000001 1.0000000180025095e-35 0.84500000000000008 0.63500000000000012 0.96500000000000008 0.66500000000000015 0.32500000000000007 0.25500000000000006 0.91500000000000015 0.87500000000000011 0.65000000000000013 0.45500000000000007 0.52000000000000013 0.76500000000000012 0.65500000000000014 1.0000000180025095e-35 0.77500000000000013 0.32500000000000007 0.96500000000000008 0.87500000000000011 0.78500000000000014 0.49500000000000005 0.71500000000000008 0.7400000000000001 0.50000000000000011 0.80000000000000016 0.94500000000000006 0.57500000000000007
decision_type=2 2 2 2 2 2 2 2 2 2 2 2 2 2 2 2 2 2 2 2 2 2 2 2 2 2 2 2 2 2
left_child=1 5 6 4 8 7 18 9 11 -1 20 17 15 -14 -15 -5 -17 29 24 -20 -4 22 -21 -10 -2 26 27 -23 -25 -3
right_child=2 3 10 12 -6 -7 -8 -9 23 -11 -12 -13 13 14 -16 16 -18 -19 19 21 -22 25 -24 28 -26 -27 -28 -29 -30 -31
leaf_value=-0.02098598920760656 0.015256224330081497 -0.018237114549570142 0.019222012087702751 -0.0063577073495835069 0.028858804122878695 -2.3244180145763581e-05 0.066580406224794594 -0.016681537621796295 -0.013698233220715486 -0.058081064789733863 0.13511613366358421 0.059038200264885314 -0.0043295999971505635 0.08784455950221709 0.025625776695702131 0.0052354553889017554 0.08000183249673537 -0.048027946287766105 0.01361653172366676 0.039402347492674988 0.10081266022932073 -0.030249487057976102 0.09057940983772278 -0.045561709673644084 -0.051728461533784867 -0.015657957412045578 0.055928564071655279 0.044514802640134639 0.0049198229653904073 0.014172010867991764
leaf_count=91 43 105 20 375 106 124 89 138 173 356 34 21 107 31 197 64 31 42 168 96 26 23 50 216 20 29 65 22 26 117
internal_value=0 -0.117287 0.397236 -0.0143957 -0.124793 -0.351079 0.324151 -0.425447 -0.187391 -0.505293 0.94994 -0.0362857 0.0961389 0.218155 0.340853 0.00916991 0.296329 -0.0861343 0.265223 0.310464 0.653385 0.413209 0.569287 -0.291162 -0.0600876 0.249271 0.356268 0.0630194 -0.401381 -0.0115663
internal_count=3005 2320 685 1611 806 709 605 585 700 447 80 285 805 335 228 470 95 264 516 453 46 285 146 415 63 139 110 45 242 222
shrinkage=0.1


Tree=7
num_leaves=31
num_cat=0
split_feature=188 80 260 154 7 107 243 240 110 40 174 38 130 180 194 80 38 82 281 36 196 211 153 168 168 240 178 144 144 266
split_gain=114.308 47.6384 25.1442 22.646 20.2164 15.5468 15.0515 15.9211 12.1038 11.8628 10.3186 9.52674 9.00945 8.45654 8.33304 7.16756 9.93267 6.93599 6.79705 6.7737 6.58111 6.35792 6.2804 6.15983 6.02224 5.94736 7.13414 5.0789 4.97865 4.77433
threshold=0.83500000000000008 0.38500000000000006 0.97500000000000009 0.63500000000000012 0.92500000000000016 0.88500000000000012 1.0000000180025095e-35 0.54500000000000015 0.83500000000000008 0.94500000000000006 1.0000000180025095e-35 0.84500000000000008 1.0000000180025095e-35 0.46500000000000002 0.90500000000000014 0.87500000000000011 0.34500000000000003 0.58000000000000018 0.80500000000000016 0.29500000000000004 0.88500000000000012 0.39500000000000007 0.27500000000000008 0.93500000000000016 0.83500000000000008 0.89500000000000013 0.35500000000000004 0.64000000000000012 0.66000000000000014 0.8600000000000001
decision_type=2 2 2 2 2 2 2 2 2 2 2 2 2 2 2 2 2 2 2 2 2 2 2 2 2 2 2 2 2 2
left_child=1 3 9 8 -4 6 7 21 10 15 20 12 19 -7 18 16 -2 -12 -8 -9 -1 28 -5 -11 -18 26 -17 -21 -3 -23
right_child=2 5 4 22 -6 13 14 11 -10 23 17 -13 -14 -15 -16 25 24 -19 -20 27 -22 29 -24 -25 -26 -27 -28 -29 -30 -31
leaf_value=-0.033242076268160149 -0.0040268426930362526 -0.027474938710339559 0.010914405867938072 0.059728040238125973 0.10637775882481573 0.0040791668301259978 -0.019769523846274277 -0.011014737046900251 0.032832746171893988 0.043673403434921057 -0.056456334869950442 -0.016586317008604173 0.077741861617878869 0.059759242941553783 -0.065910147865199373 0.076102851867675791 -0.002040544849760989 -0.00027123496208029491 0.03191352819225618 0.018518475240763325 -0.0033264633834672475 -0.0015817664690450373 0.0017012182566704171 0.10008773275767453 0.039256284655478431 0.088547848571430554 0.013376560547586645 0.05709120987330453 0.009652307225351639 0.028380219349790306
leaf_count=402 176 156 31 26 78 47 279 42 26 100 260 46 38 65 36 25 47 24 28 81 90 415 66 24 142 22 66 59 47 61
internal_value=0 -0.108581 0.35033 -0.288915 0.792276 0.00657497 -0.0244998 0.0406276 -0.34282 0.27031 -0.365307 0.248007 0.334543 0.363935 -0.203932 0.198813 0.130678 -0.517083 -0.150558 0.242075 -0.277697 -0.0406137 0.181001 0.545923 0.289867 0.418892 0.306091 0.347741 -0.18879 0.022579
internal_count=3005 2294 711 894 109 1400 1288 945 802 602 776 266 220 112 343 478 365 284 307 182 492 679 92 124 189 113 91 140 203 476
shrinkage=0.1


Tree=8
num_leaves=31
num_cat=0
split_feature=119 188 229 260 243 180 30 90 100 77 288 107 215 65 68 149 161 152 270 70 230 211 26 16 234 54 153 242 293 270
split_gain=94.6721 34.5514 33.6772 19.4691 18.832 14.719 10.9986 10.8753 9.84633 9.76967 8.94322 8.17991 7.7661 7.75354 7.63029 7.41977 7.43733 7.34098 7.11114 6.9403 5.99471 7.45795 5.58996 5.56822 5.33442 5.22263 5.12216 5.07164 4.98784 4.82337
threshold=0.63500000000000012 0.96500000000000008 0.70000000000000007 0.96500000000000008 1.0000000180025095e-35 0.59500000000000008 0.97500000000000009 0.77500000000000013 0.74500000000000011 0.84500000000000008 0.93500000000000016 0.92500000000000016 0.76500000000000012 0.44500000000000006 0.31000000000000005 0.91500000000000015 0.62500000000000011 0.71500000000000008 0.40500000000000008 0.85500000000000009 0.92500000000000016 0.40500000000000008 0.51500000000000012 0.41500000000000009 0.77000000000000013 0.77500000000000002 0.40500000000000008 0.79500000000000015 0.92500000000000016 0.31500000000000006
decision_type=2 2 2 2 2 2 2 2 2 2 2 2 2 2 2 2 2 2 2 2 2 2 2 2 2 2 2 2 2 2
left_child=2 5 4 29 12 8 15 -5 13 10 14 20 -1 19 -6 16 17 -7 -10 -2 21 -4 26 -19 25 -18 -15 -24 -16 -3
right_child=1 3 11 7 9 6 -8 -9 18 -11 -12 -13 -14 22 28 -17 24 23 -20 -21 -22 -23 27 -25 -26 -27 -28 -29 -30 -31
leaf_value=-0.0034547769002586841 -0.01455126847796352 -0.011545162197823327 -0.023624381298141092 0.025831679964349388 -0.014721010228537995 -0.044235911176485176 0.085571917199662756 0.10669025491923095 0.051107998815449807 0.02947758293541318 0.024062554167837584 0.06339919987533775 -0.023600945594441904 0.021470188597838086 -0.051334002928469215 0.045382589520886543 0.023954487657999693 -0.0050076065139031747 0.0050666056919929595 -0.069025396076696263 0.045268547806788136 0.011802986908897565 0.006664828261868521 0.048345562512124025 0.055953424192137197 -0.018507034331560136 -0.025680217228364201 0.061106982048867012 -0.024327898885045822 0.03996069752176603
leaf_count=441 142 24 80 21 92 34 28 80 55 22 22 28 338 36 368 104 237 71 86 28 37 231 44 27 45 33 64 28 84 75
internal_value=0 0.208597 -0.151032 0.589883 -0.223933 0.136792 0.244317 0.898781 0.00789478 -0.359029 -0.384442 0.114007 -0.12196 -0.0837822 -0.40972 0.213248 0.157274 -0.0419872 0.23026 -0.235235 0.0721688 0.0268984 0.0659094 0.0969174 0.240774 0.187647 -0.0870607 0.278368 -0.463152 0.274744
internal_count=3005 1262 1743 200 1367 1062 579 101 483 588 566 376 779 342 544 551 447 132 141 170 348 311 172 98 315 270 100 72 452 99
shrinkage=0.1


Tree=9
num_leaves=31
num_cat=0
split_feature=163 229 99 153 70 148 247 221 270 188 27 107 54 27 180 150 180 148 260 282 80 7 80 0 36 90 270 194 7 42
split_gain=76.7766 28.7822 26.9346 14.7221 13.7739 11.4082 9.76105 8.27963 8.55704 7.88992 7.49887 7.30769 6.7196 6.30787 6.24406 7.57579 6.14685 8.07519 5.91544 5.91043 5.77972 5.60309 7.24117 5.50642 5.23582 4.99543 4.7506 6.04534 9.68045 7.18114
threshold=0.56500000000000006 0.72500000000000009 0.97500000000000009 0.20500000000000004 0.88500000000000012 0.88500000000000012 0.9850000000000001 0.92500000000000016 0.30000000000000004 0.95500000000000007 0.79000000000000015 0.92500000000000016 0.65000000000000002 0.54500000000000015 0.95500000000000007 0.77500000000000013 0.90000000000000013 0.54500000000000015 0.97500000000000009 0.80000000000000016 0.33500000000000008 0.8650000000000001 0.79500000000000015 0.6150000000000001 0.35500000000000004 0.64500000000000013 0.33500000000000008 0.78500000000000014 0.82500000000000007 0.49500000000000005
decision_type=2 2 2 2 2 2 2 2 2 2 2 2 2 2 2 2 2 2 2 2 2 2 2 2 2 2 2 2 2 2
left_child=1 3 4 23 5 9 18 8 25 14 12 -3 -11 -6 16 -16 21 -18 -4 -20 -10 26 -23 -1 -7 -5 27 28 29 -2
right_child=2 11 6 7 13 24 -8 -9 20 10 -12 -13 -14 -15 15 -17 17 -19 19 -21 -22 22 -24 -25 -26 -27 -28 -29 -30 -31
leaf_value=-0.044294838744992335 -3.0282924750021529e-05 0.0086430731801053883 0.025995871404973937 -0.0091772953245256635 -0.037561452848864585 -0.011075369780883193 0.11999388101200265 0.02274988820017488 -0.038866339060911546 0.072099795002889419 -0.0046385459718294442 0.066164250306125424 0.011365365174909433 0.002420336341795822 -0.071477358185109641 0.0068347372611363734 0.093321462646126757 0.015498613910749554 0.040686479075388478 0.1157982385158539 -0.017985174510823283 -0.023303436990455288 0.023182239429074894 0.010037451470270754 0.042624627055155906 0.03270532692737517 0.0037967578420760721 -0.0043923987229591453 0.094641859423030508 0.042996400025212905
leaf_count=277 70 277 52 350 67 20 24 54 199 56 32 24 27 96 21 30 20 40 22 20 397 106 49 20 197 31 259 59 22 87
internal_value=0 -0.146906 0.173918 -0.210189 0.131068 0.171439 0.630738 -0.153678 -0.174746 0.120696 0.364871 0.132295 0.523428 -0.140139 0.0838932 -0.254114 0.108104 0.414396 0.48541 0.76454 -0.249572 0.0799181 -0.0860797 -0.406361 0.376753 -0.0576952 0.131688 0.233678 0.325178 0.238125
internal_count=3005 1629 1376 1328 1258 1095 118 1031 977 878 115 301 83 163 763 51 712 60 94 42 596 652 155 297 217 381 497 238 179 157
shrinkage=0.1


Tree=10
num_leaves=31
num_cat=0
split_feature=188 207 166 174 260 7 31 68 107 148 228 35 100 196 80 38 240 70 28 38 28 65 38 121 237 103 90 134 178 121
split_gain=62.7948 29.1225 16.3795 13.4192 13.3372 12.9371 9.39543 9.03158 8.06701 7.78586 7.18867 6.31212 6.30847 6.18072 5.89926 7.1016 6.13345 5.71337 5.84258 5.46062 5.23731 5.23598 5.04735 5.043 6.09848 5.91648 5.05867 4.78505 7.34234 4.71424
threshold=0.83500000000000008 0.62500000000000011 0.68500000000000016 1.0000000180025095e-35 0.97500000000000009 0.92500000000000016 0.63500000000000012 0.22000000000000003 0.89500000000000013 0.89500000000000013 0.9850000000000001 0.22500000000000003 0.77500000000000013 0.88500000000000012 0.87500000000000011 0.34500000000000003 0.8650000000000001 0.82500000000000007 0.7400000000000001 0.77000000000000013 0.7400000000000001 0.44500000000000006 0.91500000000000015 0.71000000000000008 0.80500000000000016 0.57500000000000007 0.71500000000000008 0.52500000000000013 0.65500000000000014 0.42000000000000004
decision_type=2 2 2 2 2 2 2 2 2 2 2 2 2 2 2 2 2 2 2 2 2 2 2 2 2 2 2 2 2 2
left_child=1 2 3 7 9 -6 -5 -1 10 14 17 -4 -10 22 15 -2 21 18 23 -20 -11 -16 -9 24 25 -3 -27 -13 -29 -28
right_child=4 8 11 6 5 -7 -8 13 12 20 -12 27 -14 -15 16 -17 -18 -19 19 -21 -22 -23 -24 -25 -26 26 29 28 -30 -31
leaf_value=0.0093858198421879965 -0.0067678518490432663 -0.0011097578446452436 -0.044217288985382769 -0.0442730637991594 0.0035051818035783306 0.079871841617979306 -0.0014742689387452219 -0.019429803898163595 0.0087112033453125223 0.030813995650038124 0.057468176275491716 0.029008305441831875 0.076546798151885642 0.002762342629339859 0.045510570050739663 0.02138616396288542 0.072848016719023398 -0.012419692277187967 0.0090799919568384305 -0.02984424771101617 0.078453256885210682 -0.0047261599451303487 -0.051579592527848023 0.046117332677046458 -0.029682153419536707 0.017257192470999654 0.092370017617940905 -0.034163965710904451 0.02357703794021996 0.025986353016417958
leaf_count=139 172 130 20 297 31 78 62 621 26 100 25 107 29 119 41 187 30 181 78 67 30 42 53 45 34 129 20 40 49 23
internal_value=0 -0.0804781 -0.161901 -0.204545 0.259658 0.581529 -0.368816 -0.141269 0.0754364 0.201379 0.0476844 0.092975 0.444791 -0.182483 0.141695 0.0789733 0.340962 0.0290494 0.0817825 -0.0890569 0.418077 0.200896 -0.219579 0.1468 0.104697 0.149901 0.271585 0.147582 -0.0237397 0.568625
internal_count=3005 2294 1507 1291 711 109 359 932 787 602 732 216 55 793 472 359 113 707 526 145 130 83 674 381 336 302 172 196 89 43
shrinkage=0.1


Tree=11
num_leaves=31
num_cat=0
split_feature=119 99 80 203 149 7 214 36 181 153 38 10 97 16 146 266 31 247 242 190 231 266 240 68 122 240 172 180 68 172
split_gain=51.6214 21.486 19.5061 10.5453 9.52783 8.33159 7.80821 7.15829 7.10202 8.13305 6.50517 8.05754 6.42248 5.85008 6.91065 5.52109 7.01679 6.41709 5.45433 5.43722 5.06759 4.92702 4.79435 4.62381 4.61992 5.93847 5.34454 5.15333 4.49161 5.92843
threshold=0.63500000000000012 0.89500000000000013 0.31500000000000006 0.87000000000000011 0.60500000000000009 0.92500000000000016 0.38500000000000006 0.54500000000000015 0.97500000000000009 0.71500000000000008 0.26500000000000007 0.52500000000000013 0.16500000000000004 0.44000000000000006 0.8650000000000001 0.84500000000000008 0.74500000000000011 0.80500000000000016 0.10500000000000002 0.80500000000000016 0.91500000000000015 0.92500000000000016 0.65500000000000014 0.77500000000000013 0.83500000000000008 0.87500000000000011 0.80500000000000016 0.59500000000000008 0.28000000000000008 0.59500000000000008
decision_type=2 2 2 2 2 2 2 2 2 2 2 2 2 2 2 2 2 2 2 2 2 2 2 2 2 2 2 2 2 2
left_child=2 4 10 7 8 -3 -7 18 9 15 23 -12 -6 -9 28 16 -2 -18 -4 -8 24 -20 -17 -1 25 26 -14 -26 -15 -30
right_child=1 5 3 -5 12 6 19 13 -10 -11 11 -13 20 14 -16 22 17 -19 21 -21 -22 -23 -24 -25 27 -27 -28 -29 29 -31
leaf_value=0.011273009838982368 -0.013458212725785519 0.023976209513196838 -0.062444352342382728 0.023759389316870105 -0.018398609725718804 0.013652279772795737 0.027484802678227428 -0.013148294585550616 0.043487172596285061 0.031638086809898207 -0.043708300998586476 -0.017675804990939434 0.017393903050106019 0.046732100882670949 -0.016700199807087916 -0.070278897715939412 -0.011444978277140763 0.065251377845803898 -0.01500879644706123 0.080912683031056087 -0.014201587722881846 0.028121238156953561 -0.018826150924644687 -0.028908279389725067 0.0037584139779210089 0.047226700489803902 -0.027649904489517214 0.063488544079546752 -0.0079473551989500523 0.027170247234267381
leaf_count=71 214 245 23 126 47 35 25 167 29 46 245 231 216 45 74 27 20 24 490 80 38 28 55 48 20 59 30 52 86 109
internal_value=0 0.154032 -0.111525 -0.0353659 0.0675795 0.350965 0.545569 -0.0690185 -0.0423955 -0.0782523 -0.258468 -0.310749 0.166367 0.0197391 0.100166 -0.131644 -0.0598033 0.303894 -0.147932 0.681918 0.206045 -0.126774 -0.357679 -0.0493457 0.241128 0.187343 0.119008 0.468968 0.182543 0.116825
internal_count=3005 1262 1743 1148 877 385 140 1022 415 386 595 476 462 481 314 340 258 44 541 105 415 518 82 119 377 305 246 72 240 195
shrinkage=0.1


Tree=12
num_leaves=31
num_cat=0
split_feature=284 229 99 27 243 288 70 103 121 258 160 35 215 160 259 160 42 20 35 293 221 241 152 150 221 8 123 90 299 36
split_gain=41.9683 19.1812 17.136 10.5873 9.99974 10.3753 9.38392 8.17802 8.11363 6.76467 7.27114 6.29131 8.27985 6.25485 5.97221 5.68338 5.58061 5.20197 5.27921 5.09133 7.72945 5.01893 5.01401 4.94681 4.54873 4.78547 4.53957 4.51307 5.85833 5.16898
threshold=0.55500000000000016 0.72500000000000009 0.97500000000000009 0.74500000000000011 1.0000000180025095e-35 0.93500000000000016 0.87000000000000011 0.72500000000000009 0.78500000000000014 1.0000000180025095e-35 0.48500000000000004 0.21500000000000002 0.28500000000000009 0.70000000000000007 0.82500000000000007 0.95500000000000007 0.38500000000000006 0.66000000000000014 0.64500000000000013 0.94500000000000006 0.80000000000000016 0.32500000000000007 0.94500000000000006 0.85500000000000009 0.87000000000000011 0.79500000000000015 0.57500000000000007 0.7350000000000001 0.62500000000000011 0.6150000000000001
decision_type=2 2 2 2 2 2 2 2 2 2 2 2 2 2 2 2 2 2 2 2 2 2 2 2 2 2 2 2 2 2
left_child=1 4 3 6 17 19 11 23 9 -5 -11 -2 14 16 -13 26 -14 -1 -19 20 -6 -10 -18 -4 25 -15 -12 28 -3 -30
right_child=2 27 7 8 5 -7 -8 -9 21 10 15 12 13 24 -16 -17 22 18 -20 -21 -22 -23 -24 -25 -26 -27 -28 -29 29 -31
leaf_value=-0.0020142519799736438 -0.03331421616879341 -0.0062064448794559909 0.02660557954542099 -0.033218386339453551 -0.036471762004117718 0.044034994149114937 -0.024110041837356672 -0.0087241544077793758 0.029881201068992204 0.068588296240029323 0.0076080527602437331 0.018516869076842562 -0.027732630132231862 0.030178356155132254 0.066433145198971033 -0.031295702565694229 -0.0045395809220703876 -0.028267345841472544 0.0037467322179249359 -0.0034950120173005473 0.013007945133208791 0.098376515880227097 0.037773832022635775 0.074589226653001148 0.060299975158912805 -0.0042426805821773805 0.029123376423901906 0.046615803783590148 0.0019498449094869472 0.044767112169667327
leaf_count=432 38 142 31 26 442 20 119 21 23 28 188 139 90 72 32 24 185 195 70 67 34 20 33 70 21 92 205 33 54 59
internal_value=0 -0.114652 0.121813 0.0890289 -0.167871 -0.266993 0.0185659 0.480558 0.201578 0.163616 0.192584 0.0625834 0.0852304 0.0194643 0.274837 0.159461 -0.0678319 -0.0878051 -0.198108 -0.293046 -0.329375 0.617395 0.0186566 0.598616 0.164801 0.10869 0.188311 0.118179 0.0731465 0.243058
internal_count=3005 1548 1457 1335 1260 563 821 122 514 471 445 702 664 493 171 417 308 697 265 543 476 43 218 101 185 164 393 288 255 113
shrinkage=0.1


Tree=13
num_leaves=31
num_cat=0
split_feature=5 207 103 150 38 30 65 80 180 19 29 139 99 134 246 247 203 36 211 215 107 270 90 90 203 254 229 70 7 160
split_gain=34.4619 16.7909 11.1244 8.64092 6.95164 6.75694 5.72025 5.36083 6.91863 5.12325 5.14839 5.83864 6.06018 5.13306 5.04435 4.86973 4.84313 4.71187 5.2853 5.27211 4.69689 4.67302 7.3027 8.72477 4.48248 6.71187 4.28898 4.27738 4.27499 4.10042
threshold=0.84500000000000008 0.62500000000000011 1.0000000180025095e-35 0.97500000000000009 0.67500000000000016 0.97500000000000009 0.18500000000000003 0.39500000000000007 0.50500000000000012 0.9850000000000001 0.39000000000000007 0.93500000000000016 0.89500000000000013 0.57000000000000017 0.75000000000000011 0.70500000000000007 0.84500000000000008 0.26500000000000007 0.36500000000000005 0.28500000000000009 0.85500000000000009 0.32500000000000007 0.7350000000000001 0.8650000000000001 0.82500000000000007 0.7350000000000001 0.70000000000000007 0.80500000000000016 0.70500000000000007 0.67500000000000016
decision_type=2 2 2 2 2 2 2 2 2 2 2 2 2 2 2 2 2 2 2 2 2 2 2 2 2 2 2 2 2 2
left_child=1 2 4 9 6 20 -1 8 -4 10 11 12 13 -2 -6 -10 -5 -9 -19 -20 21 22 -3 -24 25 -8 -21 -16 -28 -12
right_child=3 5 7 16 14 -7 24 17 15 -11 29 -13 -14 -15 27 -17 -18 18 19 26 -22 -23 23 -25 -26 -27 28 -29 -30 -31
leaf_value=-0.031568121403780958 -0.033666709287369506 0.0049164393571834268 -0.028343044574624707 0.066194769422457153 -0.041714244885026182 0.060642083937471558 -0.0085954041586465968 -0.01512803065625927 0.039804526770603844 0.048567031758526967 0.0083988488305043029 -0.034167535029924832 0.024538839253641309 0.014144133100675983 0.00010676909238100052 -0.019099463157355789 0.023145526415687435 -0.0072788821639614594 0.050573743980688361 -0.0021487760565736718 0.028942123442416041 -0.0051013307220318781 0.089693615833918258 0.00026370137929916383 -0.051077683350962147 0.043551587478186077 0.053198779178293132 -0.033897063229233027 -0.0014243825622226882 0.03168767303216951
leaf_count=126 47 254 120 56 176 22 487 79 32 42 141 39 105 43 75 25 49 92 48 85 71 401 24 20 23 26 38 73 23 163
internal_value=0 -0.05819 -0.119438 0.197082 -0.1827 0.0599757 -0.123958 -0.0043541 -0.14717 0.149294 0.123034 0.0115345 0.0821764 -0.108238 -0.302722 0.139694 0.461051 0.0649018 0.124616 0.218231 0.044363 0.0194716 0.114319 0.490437 -0.0788882 -0.0595248 0.123709 -0.166654 0.326032 0.208859
internal_count=3005 2320 1528 685 986 792 662 542 177 580 538 234 195 90 324 57 105 365 286 194 770 699 298 44 536 513 146 148 61 304
shrinkage=0.1


Tree=14
num_leaves=31
num_cat=0
split_feature=163 149 188 77 9 164 190 160 42 260 266 35 16 153 161 247 75 42 8 267 31 221 264 103 161 65 7 7 171 266
split_gain=28.1708 14.1196 10.9936 7.84118 7.63012 7.30849 6.94189 6.9052 6.51515 6.48497 6.32326 5.87891 6.05863 6.09475 6.25971 5.56732 5.51763 5.46508 5.25776 5.21675 5.21584 4.72875 4.69359 4.57839 4.50903 4.52273 4.48756 5.99859 4.39547 4.37955
threshold=0.72500000000000009 0.6150000000000001 0.96500000000000008 0.82500000000000007 0.94500000000000006 0.89000000000000012 1.0000000180025095e-35 0.84500000000000008 0.82500000000000007 0.96500000000000008 0.48000000000000004 0.21500000000000002 0.27000000000000007 0.40500000000000008 0.77500000000000013 0.91500000000000015 0.89500000000000013 0.96500000000000008 0.77500000000000013 0.60000000000000009 0.64500000000000013 0.80000000000000016 0.15500000000000003 1.0000000180025095e-35 0.63500000000000012 0.62500000000000011 0.8650000000000001 0.82500000000000007 0.82500000000000007 0.40000000000000008
decision_type=2 2 2 2 2 2 2 2 2 2 2 2 2 2 2 2 2 2 2 2 2 2 2 2 2 2 2 2 2 2
left_child=1 3 5 4 8 11 -5 16 21 -4 -8 -2 24 18 -15 -7 17 19 29 -3 -6 22 -1 -16 25 -13 27 -26 -23 -14
right_child=2 7 9 6 20 15 10 -9 -10 -11 -12 12 13 14 23 -17 -18 -19 -20 -21 -22 28 -24 -25 26 -27 -28 -29 -30 -31
leaf_value=-0.036855750365455631 -0.041275095029805718 -0.00076771324780306068 0.017023817782539356 -0.009673964109031423 -0.0071814425362201478 0.012400977165912683 0.077481324691325432 0.025842921852401293 0.022340788063593211 0.055120732505074758 0.006936022706536784 -0.006742828582914976 0.050314916714671115 0.020388820083878406 -0.047672292564449638 0.0599480653586595 0.037706475523678035 0.03550556624411709 0.078670936115086076 -0.029767619383831819 0.035093091872268105 0.010987157081620078 -0.017971488279641245 0.00022476024460047484 0.0070707626178239781 -0.051388004707405344 -0.016055740038346915 0.068707680553197856 -0.035750838318982951 0.011207778490562407
leaf_count=157 26 448 86 62 77 53 24 129 40 93 27 78 42 112 29 46 37 36 20 72 47 89 814 64 75 32 54 20 26 90
internal_value=0 -0.0643159 0.145759 -0.124209 -0.147014 0.0920322 0.128057 0.0487517 -0.172941 0.368172 0.401338 0.0530331 0.0726928 0.157165 0.0446554 0.344936 0.00313888 -0.0217447 0.308904 -0.0478308 0.0884197 -0.18754 -0.210249 -0.147109 -0.0437415 -0.197305 0.0696276 0.20047 0.00420306 0.23651
internal_count=3005 2085 920 1363 1250 741 113 722 1126 179 51 642 616 357 205 99 593 556 152 520 124 1086 971 93 259 110 149 95 115 132
shrinkage=0.1


Tree=15
num_leaves=31
num_cat=0
split_feature=284 6 260 221 174 188 33 125 148 80 22 163 266 270 35 28 20 145 90 36 299 145 215 144 68 107 122 185 146 103
split_gain=23.4626 11.8424 10.4975 6.93748 6.43232 6.21937 5.92389 5.75812 5.11936 6.01253 6.4607 4.8214 4.52927 4.03222 5.29657 4.93277 5.49404 3.79569 3.76959 4.879 4.52527 4.09658 3.64146 5.95915 4.56117 4.26764 3.63684 3.47367 3.46645 3.46067
threshold=0.55500000000000016 0.69500000000000006 0.90500000000000014 0.92500000000000016 1.0000000180025095e-35 0.97500000000000009 1.0000000180025095e-35 0.31500000000000006 0.88500000000000012 0.87500000000000011 0.97500000000000009 0.75500000000000012 0.48000000000000004 0.30000000000000004 0.55500000000000016 0.88500000000000012 0.77500000000000013 0.52500000000000013 0.7350000000000001 0.48500000000000004 0.62500000000000011 0.7350000000000001 0.46500000000000002 0.41500000000000004 0.47500000000000003 0.67500000000000016 0.65500000000000014 0.91500000000000015 0.57500000000000007 1.0000000180025095e-35
decision_type=2 2 2 2 2 2 2 2 2 2 2 2 2 2 2 2 2 2 2 2 2 2 2 2 2 2 2 2 2 2
left_child=1 3 6 4 13 22 -2 -7 9 10 29 -11 -13 14 15 16 -1 -10 19 28 26 -22 23 -4 -25 27 -21 -24 -3 -8
right_child=2 18 5 -5 -6 7 8 -9 17 11 -12 12 -14 -15 -16 -17 -18 -19 -20 20 21 -23 25 24 -26 -27 -28 -29 -30 -31
leaf_value=0.0062520504736786955 -0.045076085533946757 -0.032780724966691599 0.069243201215205524 0.023307217756176696 -0.02714742253553374 -0.0017951073632998902 -0.013629426917500478 0.055604830445064347 0.043849991295220603 -0.00066836722091668187 0.045644080001188241 0.062230000283036914 0.01696460338930289 -0.015863928144961199 0.013944778779747306 -0.053010719142854212 -0.025723593295234343 0.011712152157042202 0.040773072363534835 0.012494953731348847 0.057068130523456551 0.0099938411162131379 -0.020557334593364174 -0.0069450138038710547 0.050270104882392024 0.025450195934526722 -0.03350572330123016 0.015588517887922732 0.0052983634233219083 0.0013271464684478723
leaf_count=138 24 45 29 51 296 22 247 85 49 72 27 35 60 524 131 25 88 147 34 68 38 36 63 38 22 77 23 46 51 414
internal_value=0 -0.0857255 0.0910796 -0.128165 -0.143492 0.233472 0.0404807 0.43803 0.0516984 0.0182826 -0.0230326 0.188491 0.336413 -0.101679 -0.0235444 -0.108612 -0.0619864 0.197466 0.0945343 0.0537347 0.158024 0.341671 0.15388 0.320234 0.140339 0.0742809 0.00868409 -0.0530312 -0.125512 -0.0426177
internal_count=3005 1548 1457 1253 1202 382 1075 107 1051 855 688 167 95 906 382 251 226 196 295 261 165 74 275 89 60 186 91 109 96 661
shrinkage=0.1


Tree=16
num_leaves=31
num_cat=0
split_feature=152 149 180 78 280 9 144 134 190 161 42 270 16 70 153 38 291 211 172 145 149 190 188 107 185 270 103 229 10 270
split_gain=19.1479 11.6505 9.34143 8.06708 10.3224 7.38538 7.11334 6.04894 5.67914 5.47419 5.35899 5.32635 5.16503 5.4752 4.64559 4.56196 4.70438 4.51733 4.22332 4.18407 3.97924 5.16711 3.84304 3.94673 5.10172 3.79292 3.69545 4.11074 3.61806 4.64302
threshold=0.76500000000000012 0.6150000000000001 0.53500000000000014 0.92500000000000016 1.0000000180025095e-35 0.94500000000000006 0.79500000000000015 0.57000000000000017 0.85500000000000009 0.59500000000000008 0.90500000000000014 0.21500000000000002 0.77500000000000013 0.79500000000000015 0.89500000000000013 0.91500000000000015 0.89500000000000013 0.56500000000000006 0.50500000000000012 0.6150000000000001 0.57500000000000007 0.94500000000000006 0.95500000000000007 0.26500000000000007 0.78500000000000014 0.65500000000000014 0.57500000000000007 0.8650000000000001 0.56500000000000006 0.33500000000000008
decision_type=2 2 2 2 2 2 2 2 2 2 2 2 2 2 2 2 2 2 2 2 2 2 2 2 2 2 2 2 2 2
left_child=1 5 11 6 7 8 20 -5 10 -10 15 -2 18 14 -14 16 28 -8 -3 -7 21 -4 23 24 -22 -21 -13 -28 -1 -30
right_child=2 12 3 4 -6 19 17 -9 9 -11 -12 26 13 -15 -16 -17 -18 -19 -20 25 22 -23 -24 -25 -26 -27 27 -29 29 -31
leaf_value=-0.020267347801146217 0.027041859734196996 0.0092514753825945241 0.0032246505739081891 0.10731494831370897 0.012890146540788315 0.04202498002868036 0.04936399304225475 0.035828487388789652 -0.0039806501412729045 0.054439810404311055 0.036822161935269833 -0.027605800712986073 0.03989941985346377 -0.010470157344730533 0.0025527903924182972 -0.032667127927006399 0.0095633080628301434 -0.00017421925440430641 -0.0078345254213495648 -0.011404046605826473 0.018179474383592607 -0.048934853376577735 0.037640697920384512 0.016880097626885283 -0.043971386831253768 0.029627432442749992 0.012489876639399981 -0.036744481934742494 0.0066149376640487079 -0.016130252840266472
leaf_count=559 43 269 109 29 48 34 79 20 53 23 20 83 104 49 49 135 84 24 313 71 25 23 60 158 28 33 74 22 143 241
internal_value=0 -0.0491063 0.12976 0.194325 0.458498 -0.103891 0.143683 0.781368 -0.127981 0.136992 -0.145019 -0.045613 0.0484442 0.186217 0.279387 -0.153852 -0.131135 0.378211 0.000626124 0.115715 0.0837412 -0.0586375 0.153092 0.0895897 -0.146549 0.0161556 -0.121531 0.01207 -0.151335 -0.0766004
internal_count=3005 2180 825 603 97 1396 506 49 1258 76 1182 222 784 202 153 1162 1027 103 582 138 403 132 271 211 53 104 179 96 943 384
shrinkage=0.1


Tree=17
num_leaves=31
num_cat=0
split_feature=5 207 31 31 243 166 99 36 36 148 270 180 35 90 42 100 20 95 241 33 144 180 150 166 130 65 270 180 160 266
split_gain=15.8587 8.19633 6.00815 5.34808 5.18088 6.16207 5.07373 4.61602 5.09578 4.84584 4.52379 6.36343 4.42212 4.28164 4.27512 4.18501 4.09524 5.43276 4.35541 3.91065 3.83536 4.49919 3.77431 4.11441 3.64083 3.59154 5.64759 4.10538 3.37689 3.29886
threshold=0.84500000000000008 0.62500000000000011 0.73000000000000009 0.71500000000000008 0.72000000000000008 0.55500000000000016 0.89500000000000013 1.0000000180025095e-35 0.72500000000000009 0.52500000000000013 0.14500000000000005 0.6100000000000001 0.58500000000000008 0.80500000000000016 0.27500000000000008 0.85500000000000009 0.56500000000000006 0.67500000000000016 0.37500000000000006 0.92500000000000016 0.75000000000000011 0.85000000000000009 0.9850000000000001 0.78500000000000014 1.0000000180025095e-35 0.79500000000000015 0.34500000000000003 0.90000000000000013 0.68500000000000016 0.32000000000000006
decision_type=2 2 2 2 2 2 2 2 2 2 2 2 2 2 2 2 2 2 2 2 2 2 2 2 2 2 2 2 2 2
left_child=1 2 3 4 12 -6 10 9 20 -3 -2 15 19 -4 -13 -12 17 24 -19 -1 21 28 29 -24 -14 27 -27 -10 -9 -8
right_child=6 7 13 -5 5 -7 22 8 25 -11 11 14 16 -15 -16 -17 -18 18 -20 -21 -22 -23 23 -25 -26 26 -28 -29 -30 -31
leaf_value=-0.014375022823579463 -0.028687919014574667 0.071381012547062708 0.00050443206860132869 -0.044737447320173186 -0.024628713352059753 0.031467672189076742 0.036212691597797921 -0.013482416830669062 0.00085093731313575947 0.010285955405718573 -0.026510405471691718 -0.024167907536029817 0.012081517634393541 0.036864115402866632 0.024994896459575817 0.024838472583464215 -0.010288182331483492 0.072543525424870581 0.015762058914239919 0.012827101008871855 0.0097065502752179973 -0.039513891911007126 0.010890507474541664 0.069066379736027403 -0.019439887316656058 0.07248565563932062 0.011406849170239961 0.044389069288969046 0.0087286990129499947 0.011950688900844426
leaf_count=507 38 20 191 45 290 21 71 184 162 37 65 20 114 39 153 21 151 22 35 59 146 44 20 31 54 24 41 25 109 266
internal_value=0 -0.0394742 -0.0822665 -0.108662 -0.0964979 -0.208409 0.133693 0.0430849 0.0218248 0.317228 0.035325 0.0825982 -0.0595508 0.0666977 0.193113 -0.139717 0.0245121 0.110007 0.376777 -0.115395 -0.0383187 -0.0969717 0.208991 0.462523 0.0194964 0.1371 0.33959 0.0667154 -0.0521958 0.170623
internal_count=3005 2320 1528 1298 1253 311 685 792 735 57 297 259 942 230 173 86 376 225 57 566 483 337 388 51 168 252 65 187 293 337
shrinkage=0.1


Tree=18
num_leaves=31
num_cat=0
split_feature=188 42 103 26 20 80 144 38 246 288 42 101 121 35 145 90 215 180 148 19 28 270 153 247 161 160 241 186 158 264
split_gain=13.1601 8.43246 7.16252 5.93238 5.30408 5.58393 4.91365 4.77232 5.31013 4.54263 5.47771 4.51761 4.46078 4.32706 6.40648 4.74242 5.44862 4.24159 4.02023 3.88333 4.27225 3.73533 3.50939 3.73955 3.57986 4.23551 5.14558 3.39422 3.38267 3.34809
threshold=0.92500000000000016 0.76500000000000012 1.0000000180025095e-35 0.34500000000000003 0.43500000000000005 0.70500000000000007 0.88500000000000012 0.67500000000000016 0.57500000000000007 0.93500000000000016 0.17500000000000002 0.95500000000000007 0.6100000000000001 0.21500000000000002 0.21500000000000002 0.81500000000000006 0.27500000000000008 0.52500000000000013 0.76500000000000012 0.9850000000000001 0.7400000000000001 0.47500000000000003 0.12500000000000003 0.90500000000000014 0.55500000000000016 0.65500000000000014 0.62500000000000011 0.30000000000000004 0.95500000000000007 0.43500000000000005
decision_type=2 2 2 2 2 2 2 2 2 2 2 2 2 2 2 2 2 2 2 2 2 2 2 2 2 2 2 2 2 2
left_child=1 2 7 4 5 21 17 11 -9 10 -4 28 -10 -12 -15 -16 -17 -5 -7 20 22 -3 -2 24 -24 -26 -27 -18 -1 -20
right_child=19 3 9 6 -6 18 -8 8 12 -11 13 -13 -14 14 15 16 27 -19 29 -21 -22 -23 23 -25 25 26 -28 -29 -30 -31
leaf_value=-0.0061830636883121303 0.040610098784729362 0.080689015186258733 -0.018665264293496662 0.0072305055683770398 -0.0049640782337519347 -0.020916893430378128 0.03867898830212653 -0.037191646482522898 0.017043730447238142 0.036961301328504788 -0.032577248437155502 0.037291430937045296 -0.017875881088481281 0.028934853365111243 -0.003861502503612261 0.049336588573761476 -0.0099311901899901307 -0.014573876838598933 0.060944080778530668 0.043036223244853317 0.040908902988303457 0.028559328546678583 -0.035976321262217337 0.0178694813587983 -0.018961346887198152 -0.008864349529387491 0.048752712590559841 0.035816801954870636 -0.038053367207092903 0.016079394603148105
leaf_count=687 31 28 136 182 64 23 30 123 44 34 32 23 217 96 435 39 55 175 21 50 48 27 31 123 51 31 31 23 35 80
internal_value=0 -0.0257821 -0.0578586 0.074979 0.19744 0.285781 -0.0019149 -0.110059 -0.200618 0.0114756 -0.00344678 -0.0633816 -0.119891 0.0331944 0.0509211 0.00945551 0.188179 -0.0345792 0.168152 0.169862 0.132218 0.550981 0.0876209 0.0506439 -0.058733 0.0238505 0.199442 0.035586 -0.0772802 0.254077
internal_count=3005 2609 1979 630 243 179 387 1129 384 850 816 745 261 680 648 552 117 357 124 396 346 55 298 267 144 113 62 78 722 101
shrinkage=0.1


Tree=19
num_leaves=31
num_cat=0
split_feature=7 180 68 42 221 10 30 207 107 232 234 35 113 35 266 38 252 241 109 19 178 150 242 105 284 16 194 134 178 140
split_gain=11.0399 8.98156 5.93172 5.2222 4.44662 4.5149 4.25391 4.08428 3.7407 3.43449 3.38724 3.57545 3.36301 3.5654 3.23372 4.33976 4.77413 3.81603 4.16659 3.17996 4.34419 3.30194 3.15233 3.04972 3.00672 2.94836 2.90247 2.86864 3.46206 3.46299
threshold=0.66500000000000015 0.49500000000000005 0.24000000000000002 0.57500000000000007 0.30000000000000004 0.83500000000000008 0.9850000000000001 0.62500000000000011 0.83500000000000008 0.71000000000000008 0.71000000000000008 0.50500000000000012 0.97500000000000009 0.21500000000000002 0.17500000000000002 0.26500000000000007 0.35500000000000004 0.37500000000000006 0.93500000000000016 0.88500000000000012 0.55500000000000016 0.58500000000000008 0.36500000000000005 1.0000000180025095e-35 0.49500000000000005 0.76500000000000012 0.91500000000000015 0.95500000000000007 0.22500000000000003 1.0000000180025095e-35
decision_type=2 2 2 2 2 2 2 2 2 2 2 2 2 2 2 2 2 2 2 2 2 2 2 2 2 2 2 2 2 2
left_child=2 3 8 10 -5 9 12 14 22 24 -2 -12 13 -3 -4 16 23 27 26 21 -21 25 -1 -16 -6 -9 -19 28 -17 -30
right_child=1 6 7 4 5 -7 -8 19 -10 -11 11 -13 -14 -15 15 17 -18 18 -20 20 -22 -23 -24 -25 -26 -27 -28 -29 29 -31
leaf_value=-0.015199757638429082 -0.019560696229845968 -0.027162831861525773 -0.045468226780316666 -0.011149090897993416 -0.00040123197250068192 0.05830312618345488 0.046298213836711809 -0.010018055498518086 0.038750696056248514 -0.0085734475696203748 -0.026967082945702714 0.019555854431863102 0.037270670570433144 0.01124906437045619 -0.012505161354933174 -0.035983451152569616 0.028758513651943457 -0.021203379505349756 0.021673896802323206 0.0053314404296023509 -0.05899058466865903 0.013975916334738334 0.010010151878664886 0.020157427364694225 0.045553807488509589 0.01427373406978754 -0.051511519902518822 0.029443255084611122 -0.01078619756110129 0.020346758067202958
leaf_count=67 204 25 28 77 24 24 37 216 34 51 24 53 48 723 156 40 48 325 21 21 21 150 191 35 35 65 35 21 160 46
internal_value=0 0.0682506 -0.0538286 -0.0388786 0.0800144 0.190058 0.131525 -0.0810827 0.0757219 0.104319 -0.128154 0.050552 0.116118 0.0996524 -0.120084 -0.109522 0.00565328 -0.152002 -0.216243 -0.00563556 -0.268296 0.0199601 0.0346339 -0.0651987 0.268602 -0.0439896 -0.2415 -0.0603322 -0.090617 -0.0383418
internal_count=3005 1325 1680 492 211 134 833 1388 292 110 281 77 796 748 915 887 239 648 381 473 42 431 258 191 59 281 360 267 246 206
shrinkage=0.1


Tree=20
num_leaves=31
num_cat=0
split_feature=70 190 82 211 7 113 139 90 180 27 103 162 113 148 68 237 78 215 97 238 215 90 38 153 113 26 215 97 69 171
split_gain=9.37656 7.82597 7.78817 5.11594 4.87572 4.65187 4.57659 5.02007 4.32224 4.30159 4.16337 3.85429 3.71799 3.67666 3.66648 3.60139 3.44729 3.16651 5.1224 3.71424 4.12824 3.1651 3.12785 3.9161 3.46976 3.41196 3.12019 3.44805 2.97403 3.26794
threshold=0.80500000000000016 1.0000000180025095e-35 0.90500000000000014 0.41500000000000004 0.92500000000000016 0.80500000000000016 0.93500000000000016 0.88500000000000012 0.92500000000000016 0.77000000000000013 1.0000000180025095e-35 0.8650000000000001 0.65500000000000014 0.50500000000000012 0.62500000000000011 0.94500000000000006 0.90500000000000014 0.13500000000000004 0.80500000000000016 0.8650000000000001 0.48500000000000004 0.16000000000000003 0.46500000000000002 0.76500000000000012 0.66500000000000015 0.6150000000000001 0.025000000000000005 0.97500000000000009 0.21500000000000002 0.13000000000000003
decision_type=2 2 2 2 2 2 2 2 2 2 2 2 2 2 2 2 2 2 2 2 2 2 2 2 2 2 2 2 2 2
left_child=1 3 6 5 10 8 11 -8 12 -4 22 -3 -1 -7 -13 -11 -6 18 -12 -19 -21 -22 24 -24 25 -2 -5 28 -28 -30
right_child=4 2 9 26 16 13 7 -9 -10 15 17 14 -14 -15 -16 -17 -18 19 -20 20 21 -23 23 -25 -26 -27 27 -29 29 -31
leaf_value=-0.005510316618315564 -0.029913211270020557 0.0085651724085899512 0.0093015218507498509 -0.035334418080747131 -0.013961480016058143 0.039296866854419937 0.011130034847137257 -0.039608448333083059 -0.043850111968349668 0.03730619317585869 -0.011963981051336635 0.055829318452419507 -0.031312562164032103 -0.0018083669779383961 0.0084940332143257063 0.092866130024194721 0.035544787681637671 -0.016028926984872668 0.056276240017773073 -0.023897800737848651 -0.003011975122185854 0.042776000828275255 -0.027519052520977683 0.0052811079037686191 0.021904706906449672 0.017065904678946194 -0.010240185649727762 0.043704228230159396 0.043985081260854549 0.0048877997083043197
leaf_count=363 52 488 25 20 22 32 39 39 40 28 22 36 66 68 30 20 39 160 22 26 26 36 273 42 36 22 132 22 22 757
internal_value=0 0.0330164 0.120117 -0.00732925 -0.0945083 -0.0823611 0.0843959 -0.142392 -0.124113 0.429375 -0.117599 0.116326 -0.0947989 0.113453 0.343133 0.604562 0.176901 -0.025667 0.221561 -0.0695301 0.0954866 0.235746 -0.180761 -0.231457 -0.035588 -0.159464 0.0374694 0.045847 0.0363999 0.0599196
internal_count=3005 2227 705 1522 778 569 632 78 469 73 717 554 429 100 66 48 61 292 44 248 88 62 425 315 110 74 953 933 911 779
shrinkage=0.1


Tree=21
num_leaves=31
num_cat=0
split_feature=90 165 70 100 242 35 266 215 253 189 16 149 107 264 126 54 16 113 153 35 44 245 16 68 9 31 172 125 119 264
split_gain=7.98307 9.34163 6.05587 6.0941 5.20444 4.40123 4.53162 6.17375 4.19195 4.14648 4.0511 3.89136 3.89001 4.048 4.09307 3.80774 4.52137 3.73549 3.73434 3.68995 3.6168 3.23179 3.46414 4.49349 3.24038 3.22749 4.40606 4.673 3.47512 3.21454
threshold=0.7350000000000001 0.96500000000000008 0.79500000000000015 0.77500000000000013 0.89500000000000013 0.21500000000000002 0.84500000000000008 0.025000000000000005 0.93500000000000016 0.92000000000000004 0.31000000000000005 0.89500000000000013 0.66500000000000015 0.68500000000000016 0.57500000000000007 0.55500000000000005 0.29000000000000009 0.68500000000000016 0.49500000000000005 0.75500000000000012 1.0000000180025095e-35 0.88500000000000012 0.76500000000000012 0.90500000000000014 0.85500000000000009 1.0000000180025095e-35 0.35500000000000004 0.53500000000000014 0.83500000000000008 0.55500000000000016
decision_type=2 2 2 2 2 2 2 2 2 2 2 2 2 2 2 2 2 2 2 2 2 2 2 2 2 2 2 2 2 2
left_child=2 5 3 4 8 -2 7 -7 21 25 -3 -8 15 14 -14 16 19 -4 29 -5 -10 22 24 -24 -1 -9 -27 -28 -29 -19
right_child=1 10 17 12 -6 6 11 9 20 -11 -12 -13 13 -15 -16 -17 -18 18 -20 -21 -22 -23 23 -25 -26 26 27 28 -30 -31
leaf_value=-0.0071486574860947566 -0.034126993752481495 0.024095976569224149 -0.016580610817013241 0.0045381451542065906 0.021009714912506753 -0.034933442006317469 -0.011452400978342691 0.0098351855262742878 -0.053976635623257607 -0.025449020648375155 0.087744221659377231 0.034400350139254618 0.0044730094684795902 -0.012195085933698077 0.0415559136916114 0.031457821163916731 -0.010370996416159692 0.05434923954773694 -0.0075804609391713455 0.05223748375378226 -0.0071363303111866118 -0.025368512888940483 0.017629778185962803 -0.026152271537908486 0.017265348416611048 0.003950202967971563 0.06247751758555356 -0.0014041081177336831 0.038125430924634711 0.0029272484202538772
leaf_count=692 26 20 428 55 80 26 156 261 32 24 20 21 44 28 92 41 174 20 179 23 34 65 144 28 59 60 46 35 61 31
internal_value=0 0.0888989 -0.0298833 0.00348785 -0.0358012 0.0626251 0.0778443 0.125447 -0.0544652 0.150795 0.559201 -0.0601224 0.10098 0.224298 0.295585 0.0319549 -0.0140275 -0.110573 -0.00779013 0.186033 -0.298468 -0.0381654 -0.022988 0.105025 -0.0523065 0.171803 0.266707 0.362709 0.237136 0.230927
internal_count=3005 756 2249 1591 1134 716 690 513 1054 487 40 177 457 164 136 293 252 658 230 78 66 988 923 172 751 463 202 142 96 51
shrinkage=0.1


Tree=22
num_leaves=31
num_cat=0
split_feature=99 149 266 134 54 35 165 70 229 90 153 31 177 186 38 82 160 16 150 238 38 5 17 10 70 7 273 211 146 16
split_gain=6.65937 6.84806 4.26056 4.03147 3.73282 4.14493 3.98236 3.90255 3.86561 5.60749 4.98496 5.86032 4.43011 3.60415 4.40578 3.30893 3.70456 3.69106 3.25327 2.95158 2.86144 2.82875 2.82432 4.53612 3.17623 2.75724 2.70793 2.69837 2.64515 3.22938
threshold=0.89500000000000013 0.62500000000000011 0.17500000000000002 0.23500000000000001 0.77500000000000002 0.41500000000000004 0.90500000000000014 0.88500000000000012 0.8650000000000001 0.41000000000000009 0.70500000000000007 0.63500000000000012 1.0000000180025095e-35 0.53500000000000014 0.46500000000000002 0.71500000000000008 0.66500000000000015 0.78500000000000014 0.54500000000000015 0.85500000000000009 0.25500000000000006 0.9850000000000001 0.79500000000000015 0.54500000000000015 0.74500000000000011 0.67500000000000016 0.97500000000000009 0.59500000000000008 0.60500000000000009 0.29000000000000009
decision_type=2 2 2 2 2 2 2 2 2 2 2 2 2 2 2 2 2 2 2 2 2 2 2 2 2 2 2 2 2 2
left_child=1 4 -3 -4 5 -1 7 8 9 15 11 12 28 14 -9 16 17 19 27 20 -7 22 -20 -24 -25 -16 -5 -2 29 -11
right_child=18 2 3 26 -6 6 -8 13 -10 10 -12 -13 -14 -15 25 -17 -18 -19 21 -21 -22 -23 23 24 -26 -27 -28 -29 -30 -31
leaf_value=-0.011062395974022365 -0.030484096426516772 -0.035832596689462662 0.027587520631761116 0.0048872568635685244 -0.017388114963424364 0.025954808509693696 0.032397489070993019 0.024782025513963569 -0.027916264271315855 -0.030179915612097832 0.045303087195624481 0.033545700981117352 0.016311782214001546 -0.035932394337647083 -0.036307854810729623 0.027526813869674999 -0.045869406233744137 -0.026292211770364161 0.0064642057326688837 0.022957893242310807 -0.01014909481775042 0.037589149055597577 0.068959161927923562 0.039399700991011095 -0.0057872734005962106 -0.0020582205174784914 -0.030684815194796433 0.0086966426804279667 -0.037002741966984776 0.024763379683313165
leaf_count=512 32 25 79 785 243 26 37 36 39 20 46 68 72 53 40 30 23 59 280 51 141 46 20 28 35 57 22 39 38 23
internal_value=0 -0.0205251 0.0487929 0.0602804 -0.0596506 -0.039404 0.00304601 -0.0113997 0.0258623 0.0457885 0.153534 0.0911951 -0.0173658 -0.138812 -0.0509383 -0.0413872 -0.0730527 -0.041032 0.10797 0.0190209 -0.0452813 0.142271 0.112667 0.274677 0.142958 -0.161818 0.0391751 -0.0896228 -0.177796 -0.00791641
internal_count=3005 2525 911 886 1614 1371 859 822 636 597 267 221 153 186 133 330 300 277 480 218 167 409 363 83 63 97 807 71 81 43
shrinkage=0.1


Tree=23
num_leaves=31
num_cat=0
split_feature=90 165 27 161 256 256 97 260 231 266 266 211 121 270 122 234 270 20 215 144 16 44 36 33 172 35 65 211 215 153
split_gain=5.81681 7.35384 4.9596 5.90021 4.65977 4.57023 3.58319 5.19142 4.57873 3.93814 5.3102 4.3099 3.53248 3.51318 3.31359 3.49745 3.30176 3.22819 3.31522 3.19241 3.1902 3.16149 3.11423 3.0202 3.00329 2.94524 2.92106 2.99929 2.89523 3.16972
threshold=0.7350000000000001 0.96500000000000008 0.74500000000000011 0.66500000000000015 1.0000000180025095e-35 1.0000000180025095e-35 0.26500000000000007 0.9850000000000001 0.74500000000000011 0.84500000000000008 0.90000000000000013 0.64000000000000012 0.78500000000000014 0.60500000000000009 0.53500000000000014 0.82000000000000017 0.6150000000000001 0.72500000000000009 0.17500000000000002 0.92500000000000016 0.31000000000000005 0.69500000000000017 0.8650000000000001 0.62500000000000011 0.65500000000000014 0.54500000000000015 0.42500000000000004 0.38000000000000006 0.43500000000000005 0.36500000000000005
decision_type=2 2 2 2 2 2 2 2 2 2 2 2 2 2 2 2 2 2 2 2 2 2 2 2 2 2 2 2 2 2
left_child=2 6 5 4 14 19 8 9 16 11 -11 17 13 26 -4 -16 23 18 -8 -1 -3 -13 -18 -2 -12 -23 27 -5 29 -20
right_child=1 20 3 12 -6 -7 7 -9 -10 10 24 21 -14 -15 15 -17 22 -19 28 -21 -22 25 -24 -25 -26 -27 -28 -29 -30 -31
leaf_value=-0.0027854222187238069 -0.011062156203644057 0.021075063310563566 -0.021032559537818119 -0.0082581737929064303 0.027916065005410929 -0.012638708371920764 -0.0072877921288212154 0.056482216715812689 0.025677584074437623 -0.040042046064303984 0.018138474441165554 -0.01324655170291208 0.047713295223586492 0.030120678029551703 0.0094033078383654357 -0.033475384974609251 -0.045977537272985848 0.049868447855388853 0.074076378159224993 0.021689940066841832 0.077556918263435359 -0.0058912854938005868 0.0011865570032525631 0.02488468053840822 -0.025254416262561627 0.04585322141647339 -0.0094586028847136079 0.037971426522158763 0.013400521193460753 0.022681481712497772
leaf_count=1102 95 20 118 23 40 555 45 23 40 36 58 82 33 74 110 23 42 34 20 56 20 22 21 31 22 22 79 36 93 30
internal_value=0 0.0758846 -0.0255086 0.0584422 -0.0378271 -0.0517769 0.0525732 0.101083 -0.0505902 0.0780962 -0.0814724 0.131286 0.172787 0.125412 -0.0883431 0.019882 -0.115641 0.215126 0.163844 -0.0160181 0.49316 -0.0164329 -0.302562 -0.0221809 0.0620543 0.19981 0.0311452 0.199497 0.238337 0.432394
internal_count=3005 756 2249 536 291 1713 716 487 229 464 116 348 245 212 251 133 189 222 188 1158 40 126 63 126 80 44 138 59 143 50
shrinkage=0.1


Tree=24
num_leaves=31
num_cat=0
split_feature=70 190 243 82 221 36 246 253 26 192 0 215 6 200 29 17 160 121 11 299 240 196 222 189 201 161 221 80 82 215
split_gain=5.42185 4.22787 5.03971 4.43958 3.88603 4.07911 3.75838 3.78008 3.65227 4.31588 5.92802 3.56226 3.32045 2.8722 2.86832 2.81287 2.77652 2.75995 3.5053 3.2273 2.82529 2.77953 2.73798 2.6308 2.94022 3.27866 3.07452 2.58645 2.59754 2.47733
threshold=0.82500000000000007 1.0000000180025095e-35 0.88000000000000012 0.90500000000000014 0.80000000000000016 0.37500000000000006 0.57500000000000007 0.89000000000000012 0.70500000000000007 0.94500000000000006 0.56500000000000006 0.25500000000000006 1.0000000180025095e-35 0.83500000000000008 0.34500000000000003 0.67500000000000016 0.87500000000000011 0.76500000000000012 0.13000000000000003 0.29000000000000009 0.16500000000000001 0.83500000000000008 0.94500000000000006 0.83000000000000018 0.64500000000000013 0.81500000000000006 0.68000000000000005 0.68500000000000016 0.64500000000000013 0.29500000000000004
decision_type=2 2 2 2 2 2 2 2 2 2 2 2 2 2 2 2 2 2 2 2 2 2 2 2 2 2 2 2 2 2
left_child=1 6 3 29 5 -2 7 22 9 17 -11 -6 -5 14 15 16 -8 18 -7 -20 -21 -22 -1 24 25 26 -16 28 -19 -3
right_child=4 2 -4 12 11 8 13 -9 -10 10 -12 -13 -14 -15 23 -17 -18 27 19 20 21 -23 -24 -25 -26 -27 -28 -29 -30 -31
leaf_value=-0.0024869491035981509 -0.025573960291969518 0.019746088460804181 -0.036320276403178774 0.053431217102572703 0.047835519188083708 0.015509031467760604 0.010901858047705836 -0.035342213148489975 0.024585809812156689 -0.020739334735732813 0.041567781607846958 0.0010266483657889896 0.011895674672958099 0.020558536030141187 0.0019204068928956987 -0.017057427490114147 -0.024273753395703222 -0.021785537110733208 -0.03629516615250776 -0.030151944438164886 -0.0050033335137782218 0.035928597602815852 -0.036764727408687276 -0.017442015969926224 -0.01440774429785578 0.037820346910918422 0.028970152057581029 0.0088864852552828586 -0.060665926821529874 0.0042179818059868961
leaf_count=802 137 130 24 39 21 60 113 39 36 26 37 72 38 101 146 117 28 122 43 33 79 21 24 35 38 52 59 23 20 490
internal_value=0 0.0240615 0.0873505 0.102865 -0.0749861 -0.102864 -0.00530234 -0.0491934 -0.0609764 -0.0847825 0.158537 0.115964 0.329332 0.0498004 0.0230415 -0.0559486 0.0391663 -0.12301 -0.053641 -0.124799 -0.0478028 0.0359237 -0.0348291 0.0847973 0.115552 0.153941 0.0970546 -0.222228 -0.272616 0.0747388
internal_count=3005 2275 721 697 730 637 1554 865 500 464 63 93 77 689 588 258 141 401 236 176 133 100 826 330 295 257 205 165 142 620
shrinkage=0.1


Tree=25
num_leaves=31
num_cat=0
split_feature=54 152 180 149 144 150 203 26 211 38 221 158 97 69 122 19 152 134 188 149 151 246 219 150 126 149 148 38 107 200
split_gain=4.69629 4.44016 4.76928 4.26415 3.73833 3.38297 3.34974 3.28715 3.26306 3.24808 3.1984 4.12986 4.01049 3.43428 3.15373 3.51401 3.83284 3.14913 3.47291 2.98997 2.87636 3.65083 3.28678 2.83814 2.91346 5.94673 3.08781 2.73504 3.61569 2.73498
threshold=0.77500000000000002 0.76500000000000012 0.50500000000000012 0.93500000000000016 0.79500000000000015 0.67000000000000015 0.87000000000000011 0.70500000000000007 0.60500000000000009 0.9850000000000001 0.54000000000000015 0.51500000000000012 0.97500000000000009 0.7350000000000001 0.41500000000000004 0.94500000000000006 0.82500000000000007 0.35500000000000004 0.92500000000000016 0.76500000000000012 0.77500000000000013 0.63500000000000012 0.68000000000000005 0.80500000000000016 0.49500000000000005 0.41500000000000004 0.18500000000000003 0.79500000000000015 0.37500000000000006 0.66500000000000015
decision_type=2 2 2 2 2 2 2 2 2 2 2 2 2 2 2 2 2 2 2 2 2 2 2 2 2 2 2 2 2 2
left_child=1 6 7 -2 5 -4 9 -3 -6 10 12 23 13 27 15 16 -7 -18 -19 -17 21 -8 -22 24 26 -26 -12 -1 -29 -28
right_child=3 2 4 -5 8 14 20 -9 -10 -11 11 -13 -14 -15 -16 19 17 18 -20 -21 22 -23 -24 -25 25 -27 29 28 -30 -31
leaf_value=-0.00750784353915822 -0.013515856694614274 -0.011533999386523382 0.038544080906680656 0.023559980708010058 0.039971918751222968 0.01516560604040687 -0.012040577219059207 0.031608406528830534 -0.00036271186890425507 0.031942257616255021 -0.024327393993735315 -0.0051415836930371848 0.031159079074859621 0.0020126579876800646 0.013777366739760363 -0.0045765886942927651 0.0035083342674038101 -0.051194581787355919 -0.0017672172437111539 0.044370448713501293 0.041563207954168319 0.024426507086239078 -0.0028447721302509309 -0.018343883322086186 0.0012366743226136481 0.064814430859781086 0.027014651042749971 -0.04446738247550093 -0.012499365684468577 0.0012648972430187896
leaf_count=599 354 151 35 34 78 37 73 20 27 27 24 298 28 294 238 26 31 44 21 24 50 44 25 28 28 31 82 50 121 83
internal_value=0 0.0152219 0.0813213 -0.102669 0.125886 0.0867142 -0.0104464 -0.064881 0.296002 -0.0246426 -0.0302187 0.0302157 -0.0619855 -0.0718164 0.0618795 -0.0368245 -0.121789 -0.227179 -0.352257 0.18918 0.114732 0.0167354 0.267605 0.118354 0.152428 0.346419 0.0918693 -0.106922 -0.218467 0.140617
internal_count=3005 2617 732 388 561 456 1885 171 105 1693 1666 574 1092 1064 421 183 133 96 65 50 192 117 75 276 248 59 189 770 171 165
shrinkage=0.1


Tree=26
num_leaves=31
num_cat=0
split_feature=70 228 244 70 134 264 253 242 11 168 149 221 36 178 299 77 151 168 9 17 16 35 29 266 42 7 231 270 244 5
split_gain=4.15927 3.49055 3.50014 3.02457 3.98542 4.27636 4.11076 3.93064 3.6771 3.17594 5.87324 3.48184 3.39873 3.03795 3.17876 3.05363 2.92906 3.18562 3.06265 3.06015 2.7743 3.59995 3.62946 2.75031 2.73498 2.80121 2.70254 2.6955 2.79763 2.66859
threshold=0.80500000000000016 0.9850000000000001 0.53500000000000014 0.69000000000000006 0.52500000000000013 0.45500000000000007 0.91000000000000014 0.62500000000000011 0.7400000000000001 0.91500000000000015 0.74500000000000011 0.80000000000000016 0.24500000000000002 0.84500000000000008 0.49000000000000005 0.75500000000000012 0.94500000000000006 0.93500000000000016 0.8650000000000001 0.89500000000000013 0.055000000000000007 0.44500000000000006 0.52500000000000013 0.62000000000000011 0.90500000000000014 0.92500000000000016 0.70500000000000007 0.33500000000000008 0.76500000000000012 0.92500000000000016
decision_type=2 2 2 2 2 2 2 2 2 2 2 2 2 2 2 2 2 2 2 2 2 2 2 2 2 2 2 2 2 2
left_child=1 3 -3 4 5 7 16 20 9 11 -11 12 -7 14 15 -14 17 18 19 -6 -1 26 -23 -20 25 29 -22 -10 -29 -2
right_child=24 2 -4 -5 6 8 -8 -9 27 10 -12 -13 13 -15 -16 -17 -18 -19 23 -21 21 22 -24 -25 -26 -27 -28 28 -30 -31
leaf_value=-0.039063328087329867 -0.008006259342921233 0.059177074758779438 0.0072522314977558223 0.011056412714322481 -0.0029060274671026645 -0.01233904086626493 -0.03034755533694157 0.021027148530771169 0.013244876630051295 0.067273855221367654 0.0062002868788113121 -0.020161261993850915 0.01220431560650468 0.044657819531857969 0.024991625309234763 -0.028723311850514549 0.015137607872832654 -0.032512613523163293 0.042655363016658364 -0.028204849435418261 -0.026354152916700402 0.013135913939376435 -0.02009157291401855 -0.0016956573287988533 0.025592250978717437 0.013144869534451454 0.010294071570611917 -0.052348210811614997 -0.00067169458012689251 -0.041285431414842609
leaf_count=25 666 21 34 291 765 39 56 59 32 31 32 31 61 40 122 26 86 38 27 51 89 130 44 29 26 61 26 20 22 25
internal_value=0 0.0219895 0.270781 0.0156896 0.00101201 0.0528649 -0.0398493 -0.0265473 0.117823 0.157346 0.362524 0.116825 0.151102 0.194094 0.145772 -0.000269294 -0.0250269 -0.041698 -0.0293468 -0.044872 -0.0710451 -0.0433991 0.0473356 0.196879 -0.0629443 -0.073969 -0.180685 -0.0862034 -0.252796 -0.0921028
internal_count=3005 2227 55 2172 1881 829 1052 373 456 382 63 319 288 249 209 87 996 910 872 816 314 289 174 56 778 752 115 74 42 691
shrinkage=0.1


Tree=27
num_leaves=31
num_cat=0
split_feature=99 54 103 70 228 122 122 240 35 90 151 9 69 10 65 214 69 38 33 6 152 211 36 256 90 180 151 144 237 134
split_gain=3.66479 4.30147 3.29948 3.2602 2.84236 2.82691 3.3889 3.17034 2.81195 3.3944 3.63414 2.7403 3.69836 3.99779 2.7246 2.65142 2.63572 2.59265 3.2739 2.56969 2.55348 3.20947 4.35209 3.37466 3.27029 2.94858 2.77607 2.69568 2.62537 2.59214
threshold=0.97500000000000009 0.77500000000000002 0.72500000000000009 0.79500000000000015 0.9850000000000001 0.70500000000000007 0.6150000000000001 0.48000000000000004 0.71500000000000008 0.77500000000000013 0.85500000000000009 0.81500000000000006 0.74500000000000011 0.53500000000000014 0.88500000000000012 0.40000000000000008 0.74500000000000011 0.46500000000000002 0.49500000000000005 0.63500000000000012 0.80500000000000016 0.60500000000000009 0.25500000000000006 1.0000000180025095e-35 0.7350000000000001 0.53500000000000014 0.84500000000000008 0.79500000000000015 0.93500000000000016 0.17500000000000002
decision_type=2 2 2 2 2 2 2 2 2 2 2 2 2 2 2 2 2 2 2 2 2 2 2 2 2 2 2 2 2 2
left_child=1 3 -2 4 14 6 15 -7 9 11 19 -5 -13 -14 20 -3 -16 18 -10 -11 28 22 -22 25 -23 -24 -25 -27 29 -1
right_child=2 5 -4 8 -6 7 -8 -9 17 10 -12 12 13 -15 16 -17 -18 -19 -20 -21 21 24 23 26 -26 27 -28 -29 -30 -31
leaf_value=-0.029862674055942173 0.024330472234354462 -0.025217659602111038 -0.016130015134811403 -0.010947761528228446 0.027888385814925039 -0.010964522639043489 0.02258032092415705 -0.041110311864087215 -0.02995521791846208 0.057874574753540492 -0.018450687825679778 -0.0058332337494023511 -0.00022248522275023993 0.047592988106257783 0.019149192005786447 8.6788904535856132e-06 -0.013233217500577061 -0.024141420408254028 0.016786720309146616 0.014259927693222249 0.057642283822808948 0.019864223736027878 -0.018614855444147475 -0.029254053483771927 -0.020050904507247305 0.013507922202435083 0.014642650574445727 0.042081228082792632 -0.027068165184831933 0.00042253813141501231
leaf_count=29 104 66 25 270 45 106 41 52 23 22 20 122 36 34 155 113 30 121 43 35 21 30 21 34 65 124 25 45 38 1110
internal_value=0 -0.0073961 0.164893 0.00764791 0.0307719 -0.106814 -0.0335269 -0.208859 -0.0487924 -0.0121349 0.18225 -0.0445324 0.0467968 0.230022 0.0243069 -0.0929265 0.13898 -0.154452 0.00497863 0.310937 0.0105491 0.0836236 0.139246 0.102376 -0.0744613 0.167249 -0.106538 0.211162 -0.0121121 -0.00348552
internal_count=3005 2876 129 2498 1772 378 220 158 726 539 77 462 192 70 1727 179 185 187 66 57 1542 365 270 249 95 190 59 169 1177 1139
shrinkage=0.1


Tree=28
num_leaves=31
num_cat=0
split_feature=7 214 215 36 270 113 33 122 16 242 100 90 134 70 122 148 150 148 148 97 264 31 221 158 100 145 275 27 11 234
split_gain=3.21139 3.44378 3.24555 3.38261 4.21965 3.67738 4.24821 2.93188 3.13951 2.84433 2.62176 3.55003 2.80462 2.52612 2.51069 2.92358 3.16199 2.46987 3.80593 5.73705 3.79069 2.96697 3.06483 2.39846 2.97618 2.34021 4.85945 2.62472 2.44506 4.27802
threshold=0.66500000000000015 0.93500000000000016 0.96500000000000008 0.57500000000000007 0.32500000000000007 0.80500000000000016 0.57000000000000017 0.32500000000000007 0.6150000000000001 0.30000000000000004 0.49500000000000005 0.48500000000000004 0.7350000000000001 0.83500000000000008 0.22500000000000003 0.85500000000000009 0.48500000000000004 0.25500000000000006 0.44500000000000006 0.76500000000000012 0.23500000000000001 0.63500000000000012 0.41500000000000004 0.45500000000000007 0.49500000000000005 0.26500000000000007 0.74500000000000011 0.88000000000000012 0.13000000000000003 0.64000000000000012
decision_type=2 2 2 2 2 2 2 2 2 2 2 2 2 2 2 2 2 2 2 2 2 2 2 2 2 2 2 2 2 2
left_child=2 17 3 4 -1 6 13 -7 -9 23 12 -12 -11 -5 -6 16 -16 21 19 20 -19 -2 -23 -8 -25 26 27 -20 29 -27
right_child=1 -3 -4 5 14 7 9 8 -10 10 11 -13 -14 -15 15 -17 -18 18 25 -21 -22 22 -24 24 -26 28 -28 -29 -30 -31
leaf_value=0.00082476166650583384 -0.011877292450583624 0.023153080254354898 -0.041969601960764047 0.017929250068024143 0.0033929444169311716 0.041960964612662799 -0.023947582766413691 -0.0022316366119916184 0.030569632415556248 -0.012531784003441957 -0.012937816333767303 0.031997682291659571 -0.049922286532819271 -0.014688379611370379 -0.01339238327797751 0.0075951016708916312 -0.035482230376061283 0.037664802127650804 0.014385438105854832 0.049752293822045129 0.00064822115589667007 -0.0034462744921293798 0.039030229988006447 0.0010851400351384656 0.044834791075276298 0.02656241168134979 0.055901758757460375 -0.026604155894546285 -0.0033902903089995731 -0.022362556013589108
leaf_count=489 211 85 21 131 89 35 20 83 45 47 108 21 35 29 324 51 81 35 61 42 132 49 26 48 23 70 23 21 546 24
internal_value=0 0.0368105 -0.0290321 -0.0240869 -0.0591931 0.0339926 -0.0115693 0.163131 0.0930006 -0.0813666 -0.1451 -0.0562274 -0.284911 0.120173 -0.119704 -0.14969 -0.178104 0.0234627 0.047899 0.16715 0.0840619 -0.0580486 0.112789 0.0664105 0.152576 0.0144447 0.152816 0.038881 -0.00825673 0.140709
internal_count=3005 1325 1680 1659 1034 625 462 163 128 302 211 129 82 160 545 456 405 1240 954 209 167 286 75 91 71 745 105 82 640 94
shrinkage=0.1


Tree=29
num_leaves=31
num_cat=0
split_feature=54 80 90 165 266 35 26 139 188 234 152 215 70 70 253 134 240 97 97 36 38 253 11 221 244 43 178 237 42 42
split_gain=2.87113 2.92075 2.71954 3.7439 3.31228 4.01949 4.30126 2.39198 3.57365 3.24554 3.05619 3.14787 2.35845 3.29817 3.03236 2.32991 2.73585 2.22468 2.26243 2.75021 2.2169 3.18558 2.75659 2.59291 2.89415 2.30115 2.85292 2.15411 2.15274 3.71147
threshold=0.77500000000000002 0.95500000000000007 0.77500000000000013 0.96500000000000008 0.55500000000000005 0.63500000000000012 0.70500000000000007 0.93500000000000016 0.89500000000000013 0.17000000000000001 0.84500000000000008 0.65500000000000014 0.79500000000000015 0.66500000000000015 0.93500000000000016 0.25000000000000006 0.85500000000000009 0.76500000000000012 0.53500000000000014 0.75500000000000012 0.47500000000000003 0.93500000000000016 0.82500000000000007 0.54000000000000015 0.85500000000000009 1.0000000180025095e-35 0.49500000000000005 0.94500000000000006 0.96500000000000008 0.91500000000000015
decision_type=2 2 2 2 2 2 2 2 2 2 2 2 2 2 2 2 2 2 2 2 2 2 2 2 2 2 2 2 2 2
left_child=2 -2 12 4 5 6 17 8 10 -9 -6 -12 13 14 27 -7 -17 18 19 -4 21 23 -22 -14 25 26 -25 28 29 -1
right_child=1 -3 3 -5 7 15 -8 9 -10 -11 11 -13 20 -15 -16 16 -18 -19 -20 -21 22 -23 -24 24 -26 -27 -28 -29 -30 -31
leaf_value=0.0018312834071738814 -0.010447368837744256 0.023082576505839825 0.014232166078599061 0.039931814546809732 0.007538156855409428 0.025692254221066836 -0.0075730793287648868 -0.047171038567709433 0.015936503963450255 -0.0030983095793900165 -0.045232840311346639 0.00080823940656113414 -0.013606154250221388 0.011714717455611413 -0.027658310837578026 -0.030555144450753125 0.013364333627016648 0.057406328558655718 -0.0019389245416159215 0.054453687304083044 -0.013690834360334088 0.034837375696817482 0.0073697176418806385 0.062914406489580868 -0.017525571355452903 -0.0054899860732257368 0.010141381468357785 -0.01789486324414611 0.019356904303034148 -0.02424949917075192
leaf_count=921 360 28 34 33 59 20 34 24 118 55 33 27 93 268 40 37 23 28 23 34 341 27 76 20 26 20 21 61 63 58
internal_value=0 -0.0802768 0.011902 0.072181 0.0525171 0.142974 0.237949 -0.0141808 0.0360505 -0.164875 -0.0862277 -0.245144 -0.00533757 0.0173016 -0.0061093 -0.0386644 -0.137193 0.327572 0.251728 0.343429 -0.0565296 0.0280691 -0.0985246 -0.0199767 0.104114 0.22319 0.358843 0.00369936 0.0143918 0.0028615
internal_count=3005 388 2617 582 549 233 153 316 237 79 119 60 2035 1411 1143 80 60 119 91 68 624 207 417 180 87 61 41 1103 1042 979
shrinkage=0.1


Tree=30
num_leaves=31
num_cat=0
split_feature=99 54 103 219 185 122 122 240 178 172 38 70 144 144 35 246 270 42 232 160 160 68 26 234 11 172 237 153 211 240
split_gain=2.52063 2.87556 2.33027 2.22897 2.58572 2.15696 2.76388 2.59 2.40316 2.83367 2.15649 1.96837 2.23607 3.48881 3.35274 3.00258 3.94596 3.76804 3.46219 2.9599 4.6085 3.92501 3.82702 2.69807 2.8594 2.62782 3.37404 4.45206 3.03965 2.4821
threshold=0.97500000000000009 0.77500000000000002 0.72500000000000009 1.0000000180025095e-35 0.91500000000000015 0.70500000000000007 0.6150000000000001 0.48000000000000004 0.97500000000000009 0.60500000000000009 0.57000000000000017 0.79500000000000015 0.79500000000000015 0.8650000000000001 0.75500000000000012 0.63500000000000012 0.27500000000000008 0.42500000000000004 0.74500000000000011 0.70000000000000007 0.63500000000000012 0.16000000000000003 0.54500000000000015 0.8600000000000001 0.28500000000000009 0.075000000000000025 0.8650000000000001 0.77500000000000013 0.44500000000000001 0.85500000000000009
decision_type=2 2 2 2 2 2 2 2 2 2 2 2 2 2 2 2 2 2 2 2 2 2 2 2 2 2 2 2 2 2
left_child=1 11 3 4 -2 6 8 -7 9 -3 -5 12 14 -14 19 16 17 -15 -18 20 21 22 -1 24 -23 29 -27 28 -28 -21
right_child=2 5 -4 10 -6 7 -8 -9 -10 -11 -12 -13 13 15 -16 -17 18 -19 -20 25 -22 23 -24 -25 -26 26 27 -29 -30 -31
leaf_value=0.036172576349876494 0.0020251153782010079 -0.012785709124671904 -0.013737722665071487 -0.021472290102392436 0.045390156453306026 -0.0086882372228604451 0.021079425812732977 -0.035935574735580865 -0.037880731374025346 0.015804582936331059 0.024965748160611839 -0.0037688738503958391 0.023585371489190505 -0.015428942441940308 0.0085163958735586416 0.019233229026787976 -0.0074762853063844352 0.036001162155499235 -0.05757070766253905 -0.039748860212663814 -0.030002664188500856 -0.012000517945701337 -0.0088596648129168898 -0.023901500003402666 0.0038366145594233288 0.0026405323926224854 0.076991977430880071 0.00020710663794649438 0.021858916645869614 0.0073272685830791792
leaf_count=46 20 104 25 20 44 106 41 52 23 52 20 726 119 28 409 62 37 29 22 24 72 211 32 75 248 263 20 34 20 21
internal_value=0 -0.00613385 0.136752 0.202648 0.318386 -0.0874201 -0.0234034 -0.176557 -0.0770465 -0.0325561 0.0174673 0.00616647 0.0241342 0.103298 0.00819404 0.0146801 -0.080272 0.107373 -0.261556 -0.0213376 -0.0607164 -0.0325623 0.176978 -0.0631693 -0.0344364 0.0491733 0.0794813 0.268116 0.494254 -0.1778
internal_count=3005 2876 129 104 64 378 220 158 179 156 40 2498 1772 297 1475 178 116 57 59 1066 684 612 78 534 459 382 337 74 40 45
shrinkage=0.1


Tree=31
num_leaves=31
num_cat=0
split_feature=253 10 278 214 28 11 28 237 215 264 5 180 194 188 232 283 144 65 240 169 144 97 151 180 35 113 27 76 38 211
split_gain=2.23096 3.00882 2.91279 2.91683 2.83003 3.28886 2.96347 4.75238 3.54937 2.92688 3.75624 3.8025 3.63196 3.11044 2.88659 4.47711 3.62572 4.6677 3.18138 2.88451 2.76257 4.0898 3.4211 3.20689 2.6898 3.33465 2.66795 3.50361 2.61103 2.43924
threshold=0.82000000000000017 0.76000000000000012 0.75500000000000012 0.69500000000000017 0.92500000000000016 0.44000000000000006 0.7400000000000001 0.84500000000000008 0.13500000000000004 0.14500000000000005 0.90500000000000014 0.76500000000000012 0.91500000000000015 0.97500000000000009 0.74500000000000011 0.96500000000000008 0.57000000000000017 0.25500000000000006 0.43500000000000005 0.97500000000000009 0.84500000000000008 0.56500000000000006 0.92500000000000016 0.58000000000000007 0.33500000000000008 0.68500000000000016 0.84000000000000008 0.79500000000000004 0.59000000000000008 0.67500000000000016
decision_type=2 2 2 2 2 2 2 2 2 2 2 2 2 2 2 2 2 2 2 2 2 2 2 2 2 2 2 2 2 2
left_child=4 2 -2 -4 6 29 9 8 -8 10 11 -1 14 -12 15 16 19 18 -18 -11 22 -22 -16 -24 25 -19 27 -26 -9 -6
right_child=1 -3 3 -5 5 -7 7 28 -10 12 13 -13 -14 -15 20 -17 17 24 -20 -21 21 -23 23 -25 26 -27 -28 -29 -30 -31
leaf_value=-0.0072885210151775737 -0.014053305758214672 0.011599770190659912 -0.0032934955773796411 0.039941199943423274 -0.010451016314525871 0.039943669017595357 0.020604493220647179 -0.0075021726195700468 -0.015498712510975489 0.0017836772655379274 0.034913083442619869 -0.042752756966011864 -0.0099868532783478833 -0.011269968003034592 0.0059586411616779945 0.052621411735361272 0.011012009708654314 -0.020021035173872059 0.060245235902922495 0.04031354380771518 0.016010882556438448 -0.038931436178141404 -0.049248085980829991 -0.0029869973134292768 0.025541177330852812 0.026422807845202363 -0.0095839793474546513 -0.016104592957898328 0.038841972067471475 0.023146583652123812
leaf_count=222 322 80 71 20 47 39 30 20 295 682 35 35 176 25 311 22 21 52 35 20 20 42 23 43 166 22 35 23 31 40
internal_value=0 -0.061505 -0.0958881 0.0620864 0.0120708 0.158132 0.00435762 -0.0771257 -0.121661 0.0196003 -0.0685864 -0.121183 0.0361125 0.156701 0.0518888 0.0797258 0.070424 0.152939 0.417828 0.0288139 -0.0164672 -0.212081 0.0157027 -0.191083 0.103161 -0.0621341 0.157767 0.204732 0.206678 0.0499616
internal_count=3005 493 413 91 2512 126 2386 376 325 2010 317 257 1693 60 1517 1078 1056 354 56 702 439 62 377 66 298 74 224 189 51 87
shrinkage=0.1


Tree=32
num_leaves=31
num_cat=0
split_feature=80 122 54 215 134 160 163 215 11 73 194 185 166 253 189 270 20 255 158 38 26 299 171 238 186 42 215 145 107 145
split_gain=2.0101 2.81444 2.73557 2.66087 2.49479 2.33999 2.65183 2.2923 2.59879 2.79764 2.16696 2.12312 2.07709 2.89788 4.05845 6.01383 3.07541 2.67094 2.07279 1.90593 3.2417 3.07227 2.95514 3.84259 3.2877 2.69679 2.60418 2.59701 3.10711 2.30112
threshold=0.91500000000000015 0.34500000000000003 0.77500000000000002 0.025000000000000005 0.38000000000000006 0.62500000000000011 0.75500000000000012 0.095000000000000015 0.7400000000000001 0.63500000000000012 1.0000000180025095e-35 0.91500000000000015 0.55500000000000016 0.77000000000000013 0.83000000000000018 0.53500000000000014 0.66000000000000014 0.87500000000000011 0.53500000000000014 0.66500000000000015 0.68500000000000016 0.49000000000000005 0.89500000000000013 0.82500000000000007 0.53500000000000014 0.30500000000000005 0.29500000000000004 0.63500000000000012 0.44500000000000006 0.79500000000000015
decision_type=2 2 2 2 2 2 2 2 2 2 2 2 2 2 2 2 2 2 2 2 2 2 2 2 2 2 2 2 2 2
left_child=2 5 3 -1 -3 6 -2 8 9 -5 -7 -4 17 14 -14 -16 18 19 -15 22 21 -21 23 25 29 -9 -27 28 -25 -24
right_child=1 4 11 7 -6 10 -8 12 -10 -11 -12 -13 13 16 15 -17 -18 -19 -20 20 -22 -23 24 27 -26 26 -28 -29 -30 -31
leaf_value=-0.02455045698387992 -0.010576312899589539 0.038199135397444482 -0.01105449051179129 -0.0080527309836311775 0.0094208687177447029 -0.039643156499816826 0.037027318775653843 -0.010781906803932366 0.042262320277782595 0.026704614087939262 0.00011452800305239086 0.022511654834379443 0.0043659838210083294 -0.016603211745810274 0.074075260226215633 -0.0025448575336486103 -0.03909280335145264 -0.026590282982215288 0.014454962667964755 -0.013706027331169358 -0.026608474540816093 0.0028271981524348477 -0.023092682822607458 0.00075554708018898964 -0.036769034198828432 0.021527890446777276 0.00057216675666904495 0.0061064415099755139 0.047967980789911491 0.010415576960433994
leaf_count=42 25 40 326 55 122 26 22 149 26 40 29 20 730 44 21 20 29 44 42 176 67 311 32 20 38 77 258 71 46 57
internal_value=0 0.0833373 -0.00802665 0.00398091 0.165266 -0.0467851 0.117062 0.00843411 0.142488 0.0658194 -0.1868 -0.0911425 0.00116685 0.0387667 0.0608541 0.366996 -0.109315 -0.0235831 -0.0143527 -0.0153941 -0.0598514 -0.0314785 0.0175328 0.0459575 -0.121457 0.00410666 0.0538886 0.19381 0.336612 -0.0163234
internal_count=3005 264 2741 2395 162 102 47 2353 121 95 55 346 2232 886 771 41 115 1346 86 1302 554 487 748 621 127 484 335 137 66 89
shrinkage=0.1


Tree=33
num_leaves=31
num_cat=0
split_feature=221 252 70 69 121 96 242 16 29 282 214 113 270 11 145 194 31 33 26 291 128 134 134 139 151 168 151 270 158 33
split_gain=1.91106 2.45116 1.9828 2.1747 2.65031 2.92911 2.76121 2.65098 2.89407 3.24827 2.95169 2.59494 2.56467 1.80221 2.79315 1.77278 2.30414 2.55343 2.68527 2.12688 2.64749 2.47651 2.66805 3.03907 2.62105 2.28901 2.1322 2.08946 2.04613 2.58924
threshold=0.92500000000000016 0.52500000000000013 0.82500000000000007 0.40500000000000008 0.76500000000000012 0.91500000000000015 0.31500000000000006 0.41500000000000009 0.30500000000000005 0.65500000000000014 0.50000000000000011 0.65500000000000014 0.38500000000000006 0.13000000000000003 0.49500000000000005 0.91500000000000015 0.66500000000000015 0.43000000000000005 0.27500000000000008 0.89500000000000013 0.70000000000000007 0.17500000000000002 0.52500000000000013 0.97500000000000009 0.95500000000000007 0.91500000000000015 0.81500000000000006 0.28500000000000009 0.13500000000000004 0.57000000000000017
decision_type=2 2 2 2 2 2 2 2 2 2 2 2 2 2 2 2 2 2 2 2 2 2 2 2 2 2 2 2 2 2
left_child=2 -2 15 -4 5 6 -5 -6 9 -9 -10 12 -8 -3 -15 19 -17 18 -18 21 27 26 23 -23 25 28 -1 -21 -24 -30
right_child=1 13 3 4 7 -7 11 8 10 -11 -12 -13 -14 14 -16 16 17 -19 -20 20 -22 22 24 -25 -26 -27 -28 -29 29 -31
leaf_value=-0.03303094117496258 0.032622243845835334 -0.022881760172146774 -0.014289345299629006 -0.012552087708639029 -0.023200588939445363 0.039205693484594427 0.027260742215784613 0.029742164658787457 -0.022330014106428514 -0.01697650622068481 0.011587423649861624 0.032060386240482332 -0.0097569975635555944 0.040229224338240568 -0.0061559976023786217 -0.024258356724555296 -0.03899219426016013 0.0072762219573963768 0.007631705736830122 0.025104763113065726 0.038050535359070638 0.0072060546051007472 -0.015824968955712393 -0.02972415993395059 0.017182399537553319 -0.023479108252334145 0.0059036234774711462 -7.8573291061249207e-05 0.0075146559504615969 -0.0046578800159850072
leaf_count=39 40 21 190 78 84 24 27 46 79 22 38 41 61 21 34 60 30 110 21 45 32 715 96 23 67 53 22 123 271 492
internal_value=0 0.125852 -0.00505325 -0.0518218 -0.0172146 0.0613512 0.0230085 -0.0846819 -0.0177888 0.146273 -0.113141 0.112817 0.0160072 0.0203938 0.115547 0.00962175 -0.075322 -0.0129885 -0.197941 0.0191124 0.116883 0.00811458 0.0151491 0.0605511 -0.0190763 -0.0331008 -0.18989 0.0666696 -0.0206566 -0.00334476
internal_count=3005 116 2889 690 500 231 207 269 185 68 117 129 88 76 55 2199 221 161 51 1978 200 1778 1717 738 979 912 61 168 859 763
shrinkage=0.1


Tree=34
num_leaves=31
num_cat=0
split_feature=45 149 215 215 240 266 80 149 148 180 215 160 36 17 215 65 146 221 20 148 160 107 144 252 241 7 162 158 122 29
split_gain=1.66964 1.72717 2.21339 1.70027 1.71403 3.37492 3.01448 2.87067 2.77743 2.17914 3.21778 2.26117 3.08232 2.5336 3.39993 4.44871 3.17547 3.09346 2.71544 2.69565 2.57995 3.12718 2.50606 2.31954 4.01495 2.96302 2.87419 2.36626 2.37785 2.30522
threshold=0.99500000000000011 0.9850000000000001 0.025000000000000005 0.095000000000000015 0.87500000000000011 0.55500000000000005 0.23500000000000001 0.35500000000000004 0.30500000000000005 0.96500000000000008 0.70500000000000007 0.70000000000000007 1.0000000180025095e-35 0.8650000000000001 0.55500000000000016 0.45500000000000007 0.93500000000000016 0.54000000000000015 0.56500000000000006 0.17500000000000002 0.64500000000000013 0.67500000000000016 0.92500000000000016 0.52500000000000013 0.78500000000000014 0.65500000000000014 0.87500000000000011 0.93500000000000016 0.89500000000000013 0.55500000000000016
decision_type=2 2 2 2 2 2 2 2 2 2 2 2 2 2 2 2 2 2 2 2 2 2 2 2 2 2 2 2 2 2
left_child=1 2 -1 -4 9 6 -6 -7 -8 11 -11 13 -13 16 22 -16 17 18 20 -19 29 -22 -15 25 26 -14 27 28 -25 -5
right_child=-2 -3 3 4 5 7 8 -9 -10 10 -12 12 23 14 15 -17 -18 19 -20 -21 21 -23 -24 24 -26 -27 -28 -29 -30 -31
leaf_value=-0.020925152273132252 0.026839802608541821 0.021264175516930786 0.010114755673188862 0.0087916536478519023 0.051588568389415751 -0.020172519368186065 -0.019353115931153297 0.0080064975786680245 0.023619336691105143 -0.047472291424870493 -0.0042037779008123012 0.040139779335130819 0.0018388687158926384 -0.022126805503527674 0.019864141241922765 -0.011917755853159932 0.022176382896201365 -0.014836814053929771 -0.010695425329963849 0.0097960235363590067 -0.035462051172167199 0.0094110971465706829 0.011532466560602188 -0.0015528097594488253 -0.044992025196552279 0.027671917959594644 0.036056105927987532 -0.032209636400575226 0.028328404668718579 -0.0053896553547289868
leaf_count=52 23 37 154 265 25 56 21 102 53 25 55 23 111 192 71 116 58 52 422 305 41 25 25 326 20 74 22 23 29 202
internal_value=0 -0.00207014 -0.00476771 -0.00109223 -0.00684065 0.0708998 0.215669 -0.01981 0.114245 -0.0148903 -0.177252 -0.00948278 0.0420849 -0.0277379 -0.0973302 0.00149168 -0.00721573 -0.0173383 -0.0470268 0.0620805 0.000420472 -0.184646 -0.18249 0.0284251 -0.0126695 0.121721 0.00919301 -0.011257 0.00888191 0.0265755
internal_count=3005 2982 2945 2893 2739 257 99 158 74 2482 80 2402 628 1774 404 187 1370 1312 955 357 533 66 217 605 420 185 400 378 355 467
shrinkage=0.1


Tree=35
num_leaves=31
num_cat=0
split_feature=99 54 247 270 163 196 7 90 26 107 122 122 36 33 242 36 186 180 215 215 11 119 166 158 188 151 245 150 270 270
split_gain=1.48391 1.76893 1.70047 1.73194 1.67017 1.72 2.09415 1.72148 1.94018 1.5418 1.25856 3.37676 2.07976 1.58681 1.57522 1.41646 2.90067 2.5756 1.81436 2.28811 1.82514 1.92313 1.85653 1.72478 1.52273 2.50001 2.20588 2.19556 1.82922 3.44933
threshold=0.97500000000000009 0.77500000000000002 0.9850000000000001 0.25000000000000006 0.88500000000000012 0.79500000000000015 0.88500000000000012 0.47000000000000003 0.34500000000000003 0.53500000000000014 0.96500000000000008 0.92500000000000016 0.46500000000000002 0.43000000000000005 0.24500000000000002 0.90500000000000014 0.77500000000000013 0.8650000000000001 0.33500000000000008 0.63500000000000012 0.13000000000000003 0.71500000000000008 0.84500000000000008 0.32500000000000007 0.92500000000000016 0.78500000000000014 0.92500000000000016 0.8650000000000001 0.32500000000000007 0.23500000000000001
decision_type=2 2 2 2 2 2 2 2 2 2 2 2 2 2 2 2 2 2 2 2 2 2 2 2 2 2 2 2 2 2
left_child=1 10 3 -2 5 6 7 -3 -9 -5 11 15 -13 -14 -15 24 17 18 23 -20 -21 -22 -23 -17 28 -26 27 -27 29 -1
right_child=2 4 -4 9 -6 -7 -8 8 -10 -11 -12 12 13 14 -16 16 -18 -19 19 20 21 22 -24 -25 25 26 -28 -29 -30 -31
leaf_value=-0.00052972654691608295 0.023562757225761958 0.0020906267458932442 0.034507347767551738 -0.01801028601019769 -0.023128177257927342 -0.020796246396807525 0.028631938358938153 0.0018129322358540129 -0.029735224389217121 0.011488456585827997 -0.015374444432946263 -0.0050409942175503137 0.0033213818527292461 0.02319570499855806 0.058563903272151954 0.026417606320028427 0.030045810043811801 0.014946242744052733 -0.033472697366209281 0.013648592053840941 -0.032482592008508199 0.011930854119841129 -0.027147849053144459 -0.014158058640631764 -0.019015683433972301 0.033306192850605369 -0.015468931430950761 0.0063423676657137183 -0.0024698743561319576 0.013855159520191066
leaf_count=551 34 171 24 37 54 52 22 35 44 34 49 27 20 34 20 20 20 37 62 26 41 31 20 22 25 63 20 58 1113 239
internal_value=0 -0.00470632 0.104925 0.0500344 -0.0684609 -0.0413241 -0.00946682 -0.035496 -0.157582 -0.0388413 0.0049411 0.00811611 0.187154 0.273832 0.36295 0.000414744 -0.0664706 -0.0948048 -0.135516 -0.179185 -0.0974596 -0.163575 -0.0339413 0.0516369 0.00943408 0.101288 0.152962 0.203814 0.00142162 0.0382216
internal_count=3005 2876 129 105 378 324 272 250 79 71 2498 2449 101 74 54 2348 279 259 222 180 118 92 51 42 2069 166 141 121 1903 790
shrinkage=0.1


Tree=36
num_leaves=31
num_cat=0
split_feature=211 11 252 215 172 270 35 211 121 16 38 100 33 185 194 33 280 17 26 33 270 19 244 153 148 174 116 134 264 97
split_gain=1.35204 2.74635 1.90063 2.84831 3.10643 2.24696 1.89214 1.90223 2.51256 2.46184 1.88344 2.58558 3.12459 2.04054 1.86439 1.8435 1.78764 2.65501 2.7747 1.9218 1.61514 2.9426 2.44239 2.35189 2.8374 2.14411 2.04707 2.11877 1.81285 2.30172
threshold=0.41500000000000004 1.0000000180025095e-35 0.84500000000000008 0.46500000000000002 0.095000000000000015 0.39500000000000007 0.17500000000000002 0.44500000000000001 1.0000000180025095e-35 0.44000000000000006 0.73000000000000009 0.7350000000000001 0.65000000000000013 0.7400000000000001 0.70500000000000007 0.75500000000000012 0.88500000000000012 0.76500000000000012 0.52500000000000013 0.18500000000000003 0.65500000000000014 0.89500000000000013 0.9850000000000001 0.38500000000000006 0.84500000000000008 1.0000000180025095e-35 1.0000000180025095e-35 0.80500000000000016 0.18500000000000003 0.25500000000000006
decision_type=2 2 2 2 2 2 2 2 2 2 2 2 2 2 2 2 2 2 2 2 2 2 2 2 2 2 2 2 2 2
left_child=1 -1 10 5 -5 -4 -2 8 9 -8 16 13 -13 -12 15 -10 17 19 -19 -3 21 22 28 -23 -25 26 -22 -28 -9 -30
right_child=6 2 3 4 -6 -7 7 20 14 -11 11 12 -14 -15 -16 -17 -18 18 -20 -21 25 23 -24 24 -26 -27 27 -29 29 -31
